{"learner":{"attributes":{"best_iteration":"599","best_ntree_limit":"600","scikit_learn":"{\"use_label_encoder\": false, \"n_estimators\": 600, \"objective\": \"multi:softmax\", \"max_depth\": 3, \"max_leaves\": null, \"max_bin\": null, \"grow_policy\": null, \"learning_rate\": 0.05, \"verbosity\": null, \"booster\": null, \"tree_method\": null, \"gamma\": 0, \"min_child_weight\": 1, \"max_delta_step\": null, \"subsample\": 0.8, \"sampling_method\": null, \"colsample_bytree\": 0.8, \"colsample_bylevel\": null, \"colsample_bynode\": null, \"reg_alpha\": null, \"reg_lambda\": null, \"scale_pos_weight\": null, \"base_score\": null, \"missing\": NaN, \"num_parallel_tree\": null, \"random_state\": null, \"n_jobs\": null, \"monotone_constraints\": null, \"interaction_constraints\": null, \"importance_type\": null, \"gpu_id\": null, \"validate_parameters\": null, \"predictor\": null, \"enable_categorical\": false, \"max_cat_to_onehot\": null, \"eval_metric\": null, \"early_stopping_rounds\": null, \"callbacks\": null, \"kwargs\": {\"nthread\": -1, \"num_class\": 3, \"seed\": 27}, \"classes_\": [0, 1, 2], \"n_classes_\": 3, \"_estimator_type\": \"classifier\"}"},"feature_names":["2","3","10","11","18","19","20","21","22","23","24","25","28","29","30","31","32","33","34","35","54","55","56","57","58","59","60","61","62","63","66","67","68","69","70","71","72","73","74","75","76","77","78","79","80","81","82","83","84","85","94","95","96","97","98","99","106","107","108","109","110","111","112","113","116","117","118","119","120","121","122","123","142","143","144","145","146","147","148","149","150","151","154","155","156","157","158","159","160","161","162","163","164","165","166","167","168","169","170","171","172","173","182","183"],"feature_types":["float","float","float","float","float","float","float","float","float","float","float","float","float","float","float","float","float","float","float","float","float","float","float","float","float","float","float","float","float","float","float","float","float","float","float","float","float","float","float","float","float","float","float","float","float","float","float","float","float","float","float","float","float","float","float","float","float","float","float","float","float","float","float","float","float","float","float","float","float","float","float","float","float","float","float","float","float","float","float","float","float","float","float","float","float","float","float","float","float","float","float","float","float","float","float","float","float","float","float","float","float","float","float","float"],"gradient_booster":{"model":{"gbtree_model_param":{"num_parallel_tree":"1","num_trees":"1800","size_leaf_vector":"0"},"tree_info":[0,1,2,0,1,2,0,1,2,0,1,2,0,1,2,0,1,2,0,1,2,0,1,2,0,1,2,0,1,2,0,1,2,0,1,2,0,1,2,0,1,2,0,1,2,0,1,2,0,1,2,0,1,2,0,1,2,0,1,2,0,1,2,0,1,2,0,1,2,0,1,2,0,1,2,0,1,2,0,1,2,0,1,2,0,1,2,0,1,2,0,1,2,0,1,2,0,1,2,0,1,2,0,1,2,0,1,2,0,1,2,0,1,2,0,1,2,0,1,2,0,1,2,0,1,2,0,1,2,0,1,2,0,1,2,0,1,2,0,1,2,0,1,2,0,1,2,0,1,2,0,1,2,0,1,2,0,1,2,0,1,2,0,1,2,0,1,2,0,1,2,0,1,2,0,1,2,0,1,2,0,1,2,0,1,2,0,1,2,0,1,2,0,1,2,0,1,2,0,1,2,0,1,2,0,1,2,0,1,2,0,1,2,0,1,2,0,1,2,0,1,2,0,1,2,0,1,2,0,1,2,0,1,2,0,1,2,0,1,2,0,1,2,0,1,2,0,1,2,0,1,2,0,1,2,0,1,2,0,1,2,0,1,2,0,1,2,0,1,2,0,1,2,0,1,2,0,1,2,0,1,2,0,1,2,0,1,2,0,1,2,0,1,2,0,1,2,0,1,2,0,1,2,0,1,2,0,1,2,0,1,2,0,1,2,0,1,2,0,1,2,0,1,2,0,1,2,0,1,2,0,1,2,0,1,2,0,1,2,0,1,2,0,1,2,0,1,2,0,1,2,0,1,2,0,1,2,0,1,2,0,1,2,0,1,2,0,1,2,0,1,2,0,1,2,0,1,2,0,1,2,0,1,2,0,1,2,0,1,2,0,1,2,0,1,2,0,1,2,0,1,2,0,1,2,0,1,2,0,1,2,0,1,2,0,1,2,0,1,2,0,1,2,0,1,2,0,1,2,0,1,2,0,1,2,0,1,2,0,1,2,0,1,2,0,1,2,0,1,2,0,1,2,0,1,2,0,1,2,0,1,2,0,1,2,0,1,2,0,1,2,0,1,2,0,1,2,0,1,2,0,1,2,0,1,2,0,1,2,0,1,2,0,1,2,0,1,2,0,1,2,0,1,2,0,1,2,0,1,2,0,1,2,0,1,2,0,1,2,0,1,2,0,1,2,0,1,2,0,1,2,0,1,2,0,1,2,0,1,2,0,1,2,0,1,2,0,1,2,0,1,2,0,1,2,0,1,2,0,1,2,0,1,2,0,1,2,0,1,2,0,1,2,0,1,2,0,1,2,0,1,2,0,1,2,0,1,2,0,1,2,0,1,2,0,1,2,0,1,2,0,1,2,0,1,2,0,1,2,0,1,2,0,1,2,0,1,2,0,1,2,0,1,2,0,1,2,0,1,2,0,1,2,0,1,2,0,1,2,0,1,2,0,1,2,0,1,2,0,1,2,0,1,2,0,1,2,0,1,2,0,1,2,0,1,2,0,1,2,0,1,2,0,1,2,0,1,2,0,1,2,0,1,2,0,1,2,0,1,2,0,1,2,0,1,2,0,1,2,0,1,2,0,1,2,0,1,2,0,1,2,0,1,2,0,1,2,0,1,2,0,1,2,0,1,2,0,1,2,0,1,2,0,1,2,0,1,2,0,1,2,0,1,2,0,1,2,0,1,2,0,1,2,0,1,2,0,1,2,0,1,2,0,1,2,0,1,2,0,1,2,0,1,2,0,1,2,0,1,2,0,1,2,0,1,2,0,1,2,0,1,2,0,1,2,0,1,2,0,1,2,0,1,2,0,1,2,0,1,2,0,1,2,0,1,2,0,1,2,0,1,2,0,1,2,0,1,2,0,1,2,0,1,2,0,1,2,0,1,2,0,1,2,0,1,2,0,1,2,0,1,2,0,1,2,0,1,2,0,1,2,0,1,2,0,1,2,0,1,2,0,1,2,0,1,2,0,1,2,0,1,2,0,1,2,0,1,2,0,1,2,0,1,2,0,1,2,0,1,2,0,1,2,0,1,2,0,1,2,0,1,2,0,1,2,0,1,2,0,1,2,0,1,2,0,1,2,0,1,2,0,1,2,0,1,2,0,1,2,0,1,2,0,1,2,0,1,2,0,1,2,0,1,2,0,1,2,0,1,2,0,1,2,0,1,2,0,1,2,0,1,2,0,1,2,0,1,2,0,1,2,0,1,2,0,1,2,0,1,2,0,1,2,0,1,2,0,1,2,0,1,2,0,1,2,0,1,2,0,1,2,0,1,2,0,1,2,0,1,2,0,1,2,0,1,2,0,1,2,0,1,2,0,1,2,0,1,2,0,1,2,0,1,2,0,1,2,0,1,2,0,1,2,0,1,2,0,1,2,0,1,2,0,1,2,0,1,2,0,1,2,0,1,2,0,1,2,0,1,2,0,1,2,0,1,2,0,1,2,0,1,2,0,1,2,0,1,2,0,1,2,0,1,2,0,1,2,0,1,2,0,1,2,0,1,2,0,1,2,0,1,2,0,1,2,0,1,2,0,1,2,0,1,2,0,1,2,0,1,2,0,1,2,0,1,2,0,1,2,0,1,2,0,1,2,0,1,2,0,1,2,0,1,2,0,1,2,0,1,2,0,1,2,0,1,2,0,1,2,0,1,2,0,1,2,0,1,2,0,1,2,0,1,2,0,1,2,0,1,2,0,1,2,0,1,2,0,1,2,0,1,2,0,1,2,0,1,2,0,1,2,0,1,2,0,1,2,0,1,2,0,1,2,0,1,2,0,1,2,0,1,2,0,1,2,0,1,2,0,1,2,0,1,2,0,1,2,0,1,2,0,1,2,0,1,2,0,1,2,0,1,2,0,1,2,0,1,2,0,1,2,0,1,2,0,1,2,0,1,2,0,1,2,0,1,2,0,1,2,0,1,2,0,1,2,0,1,2,0,1,2,0,1,2,0,1,2,0,1,2,0,1,2,0,1,2,0,1,2,0,1,2,0,1,2,0,1,2,0,1,2,0,1,2,0,1,2,0,1,2,0,1,2,0,1,2,0,1,2,0,1,2,0,1,2,0,1,2,0,1,2,0,1,2,0,1,2,0,1,2,0,1,2,0,1,2,0,1,2,0,1,2,0,1,2,0,1,2,0,1,2,0,1,2,0,1,2,0,1,2,0,1,2,0,1,2,0,1,2,0,1,2,0,1,2,0,1,2,0,1,2,0,1,2,0,1,2,0,1,2,0,1,2,0,1,2,0,1,2,0,1,2,0,1,2,0,1,2,0,1,2,0,1,2,0,1,2,0,1,2,0,1,2,0,1,2,0,1,2,0,1,2,0,1,2,0,1,2,0,1,2,0,1,2,0,1,2,0,1,2,0,1,2,0,1,2,0,1,2,0,1,2,0,1,2,0,1,2,0,1,2,0,1,2,0,1,2,0,1,2,0,1,2,0,1,2,0,1,2,0,1,2,0,1,2,0,1,2,0,1,2,0,1,2,0,1,2,0,1,2,0,1,2,0,1,2,0,1,2,0,1,2,0,1,2,0,1,2,0,1,2,0,1,2,0,1,2,0,1,2,0,1,2,0,1,2,0,1,2,0,1,2,0,1,2,0,1,2,0,1,2,0,1,2,0,1,2,0,1,2,0,1,2,0,1,2,0,1,2,0,1,2,0,1,2,0,1,2,0,1,2,0,1,2,0,1,2,0,1,2,0,1,2,0,1,2,0,1,2,0,1,2,0,1,2,0,1,2,0,1,2,0,1,2,0,1,2,0,1,2,0,1,2,0,1,2,0,1,2,0,1,2,0,1,2,0,1,2,0,1,2,0,1,2,0,1,2,0,1,2,0,1,2,0,1,2,0,1,2,0,1,2,0,1,2,0,1,2,0,1,2,0,1,2,0,1,2,0,1,2,0,1,2,0,1,2,0,1,2,0,1,2,0,1,2,0,1,2,0,1,2,0,1,2,0,1,2,0,1,2,0,1,2,0,1,2,0,1,2,0,1,2,0,1,2,0,1,2,0,1,2,0,1,2,0,1,2,0,1,2],"trees":[{"base_weights":[7.206769E-3,7.914168E-1,-2.277584E-1,1.1136217E0,4.8066294E-1,-5.0310236E-1,8.6754255E-2,-6.31579E-1,1.2694737E0,-2.106538E-1,7.1020406E-1,2.362694E-1,-6.544291E-1,-4.1158187E-1,6.249475E-1],"categories":[],"categories_nodes":[],"categories_segments":[],"categories_sizes":[],"default_left":[1,1,1,1,1,1,1,0,0,0,0,0,0,0,0],"id":0,"left_children":[1,3,5,7,9,11,13,-1,-1,-1,-1,-1,-1,-1,-1],"loss_changes":[2.8142554E2,3.4720337E1,1.0181689E2,4.761479E1,2.8871704E1,7.028273E1,1.4761882E2,0E0,0E0,0E0,0E0,0E0,0E0,0E0,0E0],"parents":[2147483647,0,0,1,1,2,2,3,3,4,4,5,5,6,6],"right_children":[2,4,6,8,10,12,14,-1,-1,-1,-1,-1,-1,-1,-1],"split_conditions":[3.4480304E-1,2.4921021E-1,4.583277E-1,9.9643335E-2,2.132629E-1,5.573435E-1,4.1768155E-1,-3.157895E-2,6.347369E-2,-1.053269E-2,3.5510205E-2,1.181347E-2,-3.2721456E-2,-2.0579094E-2,3.1247376E-2],"split_indices":[13,43,28,23,75,54,23,0,0,0,0,0,0,0,0],"split_type":[0,0,0,0,0,0,0,0,0,0,0,0,0,0,0],"sum_hessian":[1.5253333E3,3.5111108E2,1.1742222E3,1.711111E2,1.7999998E2,6.257777E2,5.484444E2,1.3777777E1,1.5733333E2,4.4888885E1,1.351111E2,1.0622221E2,5.1955554E2,2.848889E2,2.6355554E2],"tree_param":{"num_deleted":"0","num_feature":"104","num_nodes":"15","size_leaf_vector":"0"}},{"base_weights":[-1.3411551E-2,-2.4529997E-1,6.339905E-1,-1.2741905E-2,-6.4372474E-1,1.2784169E0,-3.444677E-1,-1.5599348E-1,8.745763E-1,-6.988792E-1,-1.8886204E-1,-6.4137936E-1,1.4094256E0,-5.0886667E-1,1.1073825E0],"categories":[],"categories_nodes":[],"categories_segments":[],"categories_sizes":[],"default_left":[1,1,1,1,1,1,1,0,0,0,0,0,0,0,0],"id":1,"left_children":[1,3,5,7,9,11,13,-1,-1,-1,-1,-1,-1,-1,-1],"loss_changes":[2.2776175E2,1.03489555E2,2.5272816E2,8.991826E1,1.01957855E1,6.162967E1,3.867318E1,0E0,0E0,0E0,0E0,0E0,0E0,0E0,0E0],"parents":[2147483647,0,0,1,1,2,2,3,3,4,4,5,5,6,6],"right_children":[2,4,6,8,10,12,14,-1,-1,-1,-1,-1,-1,-1,-1],"split_conditions":[4.831033E-1,4.6861473E-1,4.2843726E-1,4.0060058E-1,4.7969162E-1,5.070522E-1,5.346093E-1,-7.799674E-3,4.3728814E-2,-3.494396E-2,-9.443102E-3,-3.2068968E-2,7.047128E-2,-2.5443334E-2,5.5369128E-2],"split_indices":[41,35,73,15,41,52,41,0,0,0,0,0,0,0,0],"split_type":[0,0,0,0,0,0,0,0,0,0,0,0,0,0,0],"sum_hessian":[1.515111E3,1.1159999E3,3.9911108E2,7.053333E2,4.1066666E2,2.4044443E2,1.5866666E2,6.0799994E2,9.733333E1,3.6577777E2,4.4888885E1,1.5111111E1,2.2533331E2,1.431111E2,1.5555554E1],"tree_param":{"num_deleted":"0","num_feature":"104","num_nodes":"15","size_leaf_vector":"0"}},{"base_weights":[1.2236826E-2,-4.5705336E-1,2.6304027E-1,3.7894735E-1,-5.089821E-1,9.890986E-1,-2.624496E-1,-6.461539E-1,6.550218E-1,-5.539837E-1,-1.288344E-1,4.094707E-1,1.2176012E0,-6.1544657E-1,6.2795407E-1],"categories":[],"categories_nodes":[],"categories_segments":[],"categories_sizes":[],"default_left":[1,1,1,1,1,1,1,0,0,0,0,0,0,0,0],"id":2,"left_children":[1,3,5,7,9,11,13,-1,-1,-1,-1,-1,-1,-1,-1],"loss_changes":[1.796644E2,2.3273827E1,3.798034E2,9.385046E0,8.499359E0,5.4849335E1,1.820226E2,0E0,0E0,0E0,0E0,0E0,0E0,0E0,0E0],"parents":[2147483647,0,0,1,1,2,2,3,3,4,4,5,5,6,6],"right_children":[2,4,6,8,10,12,14,-1,-1,-1,-1,-1,-1,-1,-1],"split_conditions":[3.754476E-1,1.9578424E-1,4.1947192E-1,1.6041243E-1,3.655339E-1,4.026515E-1,4.4987264E-1,-3.2307696E-2,3.275109E-2,-2.7699186E-2,-6.44172E-3,2.0473536E-2,6.088006E-2,-3.0772328E-2,3.1397704E-2],"split_indices":[65,18,23,24,65,59,65,0,0,0,0,0,0,0,0],"split_type":[0,0,0,0,0,0,0,0,0,0,0,0,0,0,0],"sum_hessian":[1.5244443E3,5.306666E2,9.937777E2,3.0666664E1,4.9999997E2,4.1688885E2,5.7688885E2,6.222222E0,2.4444443E1,4.4666663E2,5.333333E1,1.1866666E2,2.982222E2,4.133333E2,1.6355554E2],"tree_param":{"num_deleted":"0","num_feature":"104","num_nodes":"15","size_leaf_vector":"0"}},{"base_weights":[3.4212314E-3,7.5940007E-1,-2.0567238E-1,-6.97807E-1,8.286989E-1,-4.7520855E-1,8.799278E-2,1.2762537E0,5.008906E-1,1.8425827E-1,-6.27633E-1,-3.666689E-1,5.4571664E-1],"categories":[],"categories_nodes":[],"categories_segments":[],"categories_sizes":[],"default_left":[1,1,1,0,1,1,1,0,0,0,0,0,0],"id":3,"left_children":[1,3,5,-1,7,9,11,-1,-1,-1,-1,-1,-1],"loss_changes":[2.416594E2,3.4027023E1,9.4835014E1,0E0,4.5817535E1,6.290016E1,1.19651665E2,0E0,0E0,0E0,0E0,0E0,0E0],"parents":[2147483647,0,0,1,1,2,2,4,4,5,5,6,6],"right_children":[2,4,6,-1,8,10,12,-1,-1,-1,-1,-1,-1],"split_conditions":[3.785482E-1,1.279387E-1,4.6279186E-1,-3.489035E-2,2.3808688E-1,5.573435E-1,4.247782E-1,6.381269E-2,2.504453E-2,9.212914E-3,-3.1381648E-2,-1.8333446E-2,2.7285833E-2],"split_indices":[41,11,16,0,45,54,15,0,0,0,0,0,0],"split_type":[0,0,0,0,0,0,0,0,0,0,0,0,0],"sum_hessian":[1.5268212E3,3.3023245E2,1.1965887E3,1.4579833E1,3.1565262E2,6.236045E2,5.7298425E2,1.322285E2,1.8342413E2,1.17036255E2,5.065682E2,2.8755347E2,2.8543082E2],"tree_param":{"num_deleted":"0","num_feature":"104","num_nodes":"13","size_leaf_vector":"0"}},{"base_weights":[-2.2085728E-3,-2.2392653E-1,6.021153E-1,4.318822E-2,-5.930379E-1,1.2150841E0,-3.2539704E-1,-1.5542732E-1,8.4292525E-1,1.009127E0,-6.54145E-1,-5.512847E-1,1.3183972E0,-4.8966196E-1,1.1256416E0],"categories":[],"categories_nodes":[],"categories_segments":[],"categories_sizes":[],"default_left":[1,1,1,1,1,1,1,0,0,0,0,0,0,0,0],"id":4,"left_children":[1,3,5,7,9,11,13,-1,-1,-1,-1,-1,-1,-1,-1],"loss_changes":[2.027148E2,1.0915331E2,2.3126822E2,1.0227575E2,4.616191E1,4.538379E1,3.9253357E1,0E0,0E0,0E0,0E0,0E0,0E0,0E0,0E0],"parents":[2147483647,0,0,1,1,2,2,3,3,4,4,5,5,6,6],"right_children":[2,4,6,8,10,12,14,-1,-1,-1,-1,-1,-1,-1,-1],"split_conditions":[4.8277718E-1,4.0217787E-1,4.2843726E-1,3.891646E-1,4.534011E-1,4.9938002E-1,5.340295E-1,-7.7713663E-3,4.214626E-2,5.0456353E-2,-3.270725E-2,-2.7564233E-2,6.591986E-2,-2.4483098E-2,5.628208E-2],"split_indices":[41,59,73,7,29,52,41,0,0,0,0,0,0,0,0],"split_type":[0,0,0,0,0,0,0,0,0,0,0,0,0,0,0],"sum_hessian":[1.5109098E3,1.1058269E3,4.0508295E2,6.4206604E2,4.637608E2,2.4371077E2,1.6137216E2,5.149767E2,1.2708936E2,1.6468185E1,4.4729263E2,1.3227136E1,2.3048363E2,1.4555693E2,1.5815235E1],"tree_param":{"num_deleted":"0","num_feature":"104","num_nodes":"15","size_leaf_vector":"0"}},{"base_weights":[1.3589485E-2,-4.4413102E-1,2.6865256E-1,3.2483074E-1,-4.9118423E-1,9.629921E-1,-2.4122262E-1,-6.3603145E-1,5.7496655E-1,-5.308933E-1,-1.3627544E-1,3.4970483E-1,1.1911966E0,-5.947961E-1,7.066906E-1],"categories":[],"categories_nodes":[],"categories_segments":[],"categories_sizes":[],"default_left":[1,1,1,1,1,1,1,0,0,0,0,0,0,0,0],"id":5,"left_children":[1,3,5,7,9,11,13,-1,-1,-1,-1,-1,-1,-1,-1],"loss_changes":[1.7897328E2,2.0008293E1,3.4873328E2,8.113056E0,7.2186356E0,5.7944733E1,1.9092076E2,0E0,0E0,0E0,0E0,0E0,0E0,0E0,0E0],"parents":[2147483647,0,0,1,1,2,2,3,3,4,4,5,5,6,6],"right_children":[2,4,6,8,10,12,14,-1,-1,-1,-1,-1,-1,-1,-1],"split_conditions":[3.7528926E-1,1.9578424E-1,4.1923028E-1,1.4832816E-1,3.6554098E-1,4.026515E-1,4.9739757E-1,-3.1801574E-2,2.8748328E-2,-2.6544666E-2,-6.813772E-3,1.7485242E-2,5.955983E-2,-2.9739806E-2,3.533453E-2],"split_indices":[65,18,23,10,65,59,93,0,0,0,0,0,0,0,0],"split_type":[0,0,0,0,0,0,0,0,0,0,0,0,0,0,0],"sum_hessian":[1.5309712E3,5.475788E2,9.8339246E2,3.1234184E1,5.163446E2,4.1600082E2,5.6739166E2,6.1328692E0,2.5101315E1,4.6394058E2,5.2404007E1,1.1350221E2,3.024986E2,4.135203E2,1.5387135E2],"tree_param":{"num_deleted":"0","num_feature":"104","num_nodes":"15","size_leaf_vector":"0"}},{"base_weights":[9.96916E-3,7.2021174E-1,-2.0130113E-1,1.00652E0,3.9802083E-1,-4.656358E-1,9.2247345E-2,-6.8400586E-1,1.129725E0,-4.2776465E-1,6.133853E-1,1.8915641E-1,-6.1903393E-1,-3.6981454E-1,6.1422455E-1],"categories":[],"categories_nodes":[],"categories_segments":[],"categories_sizes":[],"default_left":[1,1,1,1,1,1,1,0,0,0,0,0,0,0,0],"id":6,"left_children":[1,3,5,7,9,11,13,-1,-1,-1,-1,-1,-1,-1,-1],"loss_changes":[2.3085765E2,3.2136536E1,9.205653E1,3.9535263E1,3.0071888E1,6.2806335E1,1.3594131E2,0E0,0E0,0E0,0E0,0E0,0E0,0E0,0E0],"parents":[2147483647,0,0,1,1,2,2,3,3,4,4,5,5,6,6],"right_children":[2,4,6,8,10,12,14,-1,-1,-1,-1,-1,-1,-1,-1],"split_conditions":[3.5684097E-1,2.5481197E-1,4.583277E-1,1.1298441E-1,2.0631069E-1,5.541341E-1,4.1847384E-1,-3.4200292E-2,5.648625E-2,-2.1388233E-2,3.0669266E-2,9.457821E-3,-3.0951697E-2,-1.8490728E-2,3.0711228E-2],"split_indices":[19,43,28,15,75,52,23,0,0,0,0,0,0,0,0],"split_type":[0,0,0,0,0,0,0,0,0,0,0,0,0,0,0],"sum_hessian":[1.5365396E3,3.5172186E2,1.1848177E3,1.8510666E2,1.6661519E2,6.2312213E2,5.6169556E2,1.2264921E1,1.7284175E2,3.4260765E1,1.3235442E2,1.1822709E2,5.0489505E2,2.9810242E2,2.6359314E2],"tree_param":{"num_deleted":"0","num_feature":"104","num_nodes":"15","size_leaf_vector":"0"}},{"base_weights":[-1.1996316E-2,-2.3262283E-1,5.86572E-1,7.1781157E-3,-5.980528E-1,1.137807E0,-3.3752567E-1,-1.9207501E-1,7.68698E-1,1.1768554E0,-6.470306E-1,-5.9542286E-1,1.2169783E0,-5.1455986E-1,1.001151E0],"categories":[],"categories_nodes":[],"categories_segments":[],"categories_sizes":[],"default_left":[1,1,1,1,1,1,1,0,0,0,0,0,0,0,0],"id":7,"left_children":[1,3,5,7,9,11,13,-1,-1,-1,-1,-1,-1,-1,-1],"loss_changes":[2.0227945E2,9.807669E1,2.1052542E2,1.0283001E2,3.931006E1,3.621353E1,3.722682E1,0E0,0E0,0E0,0E0,0E0,0E0,0E0,0E0],"parents":[2147483647,0,0,1,1,2,2,3,3,4,4,5,5,6,6],"right_children":[2,4,6,8,10,12,14,-1,-1,-1,-1,-1,-1,-1,-1],"split_conditions":[4.8269957E-1,4.0437105E-1,4.3101987E-1,3.747494E-1,4.5090342E-1,5.047345E-1,5.340295E-1,-9.603751E-3,3.84349E-2,5.8842774E-2,-3.235153E-2,-2.9771144E-2,6.0848918E-2,-2.5727993E-2,5.005755E-2],"split_indices":[41,59,73,17,27,54,41,0,0,0,0,0,0,0,0],"split_type":[0,0,0,0,0,0,0,0,0,0,0,0,0,0,0],"sum_hessian":[1.5296902E3,1.1181589E3,4.1153125E2,6.7572064E2,4.424383E2,2.5762418E2,1.5390709E2,5.3617676E2,1.395439E2,1.1262652E1,4.3117563E2,1.0968967E1,2.466552E2,1.3647453E2,1.7432547E1],"tree_param":{"num_deleted":"0","num_feature":"104","num_nodes":"15","size_leaf_vector":"0"}},{"base_weights":[1.0444076E-2,-4.2408597E-1,2.37864E-1,5.233193E-1,-4.8220116E-1,9.0428793E-1,-1.8491383E-1,-5.8114654E-1,7.027486E-1,-4.3094823E-1,-7.22171E-1,2.0519352E-1,1.1301378E0,-4.970317E-1,6.959495E-1],"categories":[],"categories_nodes":[],"categories_segments":[],"categories_sizes":[],"default_left":[1,1,1,1,1,1,1,0,0,0,0,0,0,0,0],"id":8,"left_children":[1,3,5,7,9,11,13,-1,-1,-1,-1,-1,-1,-1,-1],"loss_changes":[1.5207123E2,2.9361832E1,2.847728E2,6.558982E0,5.8219223E0,6.1701996E1,1.7049634E2,0E0,0E0,0E0,0E0,0E0,0E0,0E0,0E0],"parents":[2147483647,0,0,1,1,2,2,3,3,4,4,5,5,6,6],"right_children":[2,4,6,8,10,12,14,-1,-1,-1,-1,-1,-1,-1,-1],"split_conditions":[3.8536298E-1,1.9590417E-1,4.107352E-1,2.8865895E-1,4.273731E-1,4.4648057E-1,4.974901E-1,-2.9057328E-2,3.513743E-2,-2.1547412E-2,-3.610855E-2,1.0259676E-2,5.650689E-2,-2.4851585E-2,3.4797475E-2],"split_indices":[61,18,17,54,81,93,93,0,0,0,0,0,0,0,0],"split_type":[0,0,0,0,0,0,0,0,0,0,0,0,0,0,0],"sum_hessian":[1.5368378E3,5.2769977E2,1.00913794E3,3.0036352E1,4.9766342E2,3.912587E2,6.178792E2,3.8848057E0,2.6151546E1,4.1238232E2,8.52811E1,9.60023E1,2.9525638E2,4.5654617E2,1.6133307E2],"tree_param":{"num_deleted":"0","num_feature":"104","num_nodes":"15","size_leaf_vector":"0"}},{"base_weights":[1.0774382E-2,7.013635E-1,-1.9932802E-1,9.910397E-1,3.9251238E-1,-4.5081487E-1,7.9999514E-2,-6.8396175E-1,1.117601E0,1.08350284E-1,9.5636976E-1,2.5084057E-1,-6.1217403E-1,-3.78243E-1,5.761487E-1],"categories":[],"categories_nodes":[],"categories_segments":[],"categories_sizes":[],"default_left":[1,1,1,1,1,1,1,0,0,0,0,0,0,0,0],"id":9,"left_children":[1,3,5,7,9,11,13,-1,-1,-1,-1,-1,-1,-1,-1],"loss_changes":[2.2443611E2,3.1892563E1,8.335224E1,4.009604E1,2.8142277E1,7.08331E1,1.2816678E2,0E0,0E0,0E0,0E0,0E0,0E0,0E0,0E0],"parents":[2147483647,0,0,1,1,2,2,3,3,4,4,5,5,6,6],"right_children":[2,4,6,8,10,12,14,-1,-1,-1,-1,-1,-1,-1,-1],"split_conditions":[3.8047695E-1,2.4921021E-1,4.5851833E-1,8.502152E-2,3.6046773E-1,5.573435E-1,4.171718E-1,-3.4198087E-2,5.588005E-2,5.417514E-3,4.781849E-2,1.2542029E-2,-3.0608702E-2,-1.891215E-2,2.8807435E-2],"split_indices":[41,43,28,75,85,54,23,0,0,0,0,0,0,0,0],"split_type":[0,0,0,0,0,0,0,0,0,0,0,0,0,0,0],"sum_hessian":[1.5448644E3,3.5982178E2,1.1850426E3,1.8453491E2,1.7528687E2,6.232753E2,5.617672E2,1.2654342E1,1.7188057E2,1.1734283E2,5.7944046E1,1.16431046E2,5.068443E2,2.921633E2,2.6960388E2],"tree_param":{"num_deleted":"0","num_feature":"104","num_nodes":"15","size_leaf_vector":"0"}},{"base_weights":[-5.4093166E-3,-2.1597616E-1,5.54829E-1,2.6380261E-3,-5.99904E-1,1.0313624E0,-3.5629946E-1,-1.5484188E-1,7.72457E-1,3.5035768E-1,-6.309382E-1,-5.7539153E-1,1.1352782E0,-5.327927E-1,1.0382117E0],"categories":[],"categories_nodes":[],"categories_segments":[],"categories_sizes":[],"default_left":[1,1,1,1,1,1,1,0,0,0,0,0,0,0,0],"id":10,"left_children":[1,3,5,7,9,11,13,-1,-1,-1,-1,-1,-1,-1,-1],"loss_changes":[1.7780168E2,9.194526E1,1.791373E2,8.48597E1,1.1942276E1,4.5834778E1,3.553623E1,0E0,0E0,0E0,0E0,0E0,0E0,0E0,0E0],"parents":[2147483647,0,0,1,1,2,2,3,3,4,4,5,5,6,6],"right_children":[2,4,6,8,10,12,14,-1,-1,-1,-1,-1,-1,-1,-1],"split_conditions":[4.8309565E-1,4.682979E-1,4.3643025E-1,3.9653888E-1,4.0380955E-1,5.047345E-1,5.3678936E-1,-7.7420943E-3,3.8622852E-2,1.7517885E-2,-3.154691E-2,-2.8769577E-2,5.6763913E-2,-2.6639635E-2,5.1910587E-2],"split_indices":[41,33,73,7,67,54,41,0,0,0,0,0,0,0,0],"split_type":[0,0,0,0,0,0,0,0,0,0,0,0,0,0,0],"sum_hessian":[1.5051918E3,1.0944534E3,4.1073834E2,6.979968E2,3.964566E2,2.696011E2,1.4113725E2,5.8012164E2,1.1787515E2,1.2212808E1,3.8424377E2,1.6101507E1,2.5349959E2,1.2582981E2,1.5307439E1],"tree_param":{"num_deleted":"0","num_feature":"104","num_nodes":"15","size_leaf_vector":"0"}},{"base_weights":[1.5908694E-2,-1.4085478E-1,6.684246E-1,6.287748E-2,-6.418787E-1,1.1610693E0,-3.88653E-1,-3.9714175E-1,7.991319E-1,4.7690213E-1,-6.7135674E-1,3.7111068E-1,1.2579987E0,-6.450281E-1,4.5833787E-1],"categories":[],"categories_nodes":[],"categories_segments":[],"categories_sizes":[],"default_left":[1,1,1,1,1,1,1,0,0,0,0,0,0,0,0],"id":11,"left_children":[1,3,5,7,9,11,13,-1,-1,-1,-1,-1,-1,-1,-1],"loss_changes":[1.5557278E2,1.2522133E2,1.5387004E2,2.959123E2,1.2014999E1,1.4939209E1,2.0794653E1,0E0,0E0,0E0,0E0,0E0,0E0,0E0,0E0],"parents":[2147483647,0,0,1,1,2,2,3,3,4,4,5,5,6,6],"right_children":[2,4,6,8,10,12,14,-1,-1,-1,-1,-1,-1,-1,-1],"split_conditions":[4.8984087E-1,4.1943404E-1,5.1150155E-1,4.3060482E-1,4.24056E-1,4.861787E-1,6.999059E-1,-1.9857088E-2,3.9956596E-2,2.3845106E-2,-3.356784E-2,1.8555535E-2,6.289994E-2,-3.2251406E-2,2.2916894E-2],"split_indices":[93,23,81,93,52,25,52,0,0,0,0,0,0,0,0],"split_type":[0,0,0,0,0,0,0,0,0,0,0,0,0,0,0],"sum_hessian":[1.5189692E3,1.2253657E3,2.9360345E2,8.7175635E2,3.5360934E2,2.002021E2,9.340137E1,5.368116E2,3.3494476E2,8.688185E0,3.4492117E2,2.2408138E1,1.7779396E2,7.188192E1,2.1519445E1],"tree_param":{"num_deleted":"0","num_feature":"104","num_nodes":"15","size_leaf_vector":"0"}},{"base_weights":[4.0179744E-4,6.3863826E-1,-2.0260362E-1,9.5201993E-1,3.296181E-1,-4.5719278E-1,8.212628E-2,-6.7757505E-1,1.0722008E0,4.0143304E-2,7.6045185E-1,1.99295E-1,-6.14819E-1,-3.6519748E-1,5.320216E-1],"categories":[],"categories_nodes":[],"categories_segments":[],"categories_sizes":[],"default_left":[1,1,1,1,1,1,1,0,0,0,0,0,0,0,0],"id":12,"left_children":[1,3,5,7,9,11,13,-1,-1,-1,-1,-1,-1,-1,-1],"loss_changes":[1.97768E2,3.535707E1,8.398375E1,3.643936E1,2.3290283E1,6.3404312E1,1.1038084E2,0E0,0E0,0E0,0E0,0E0,0E0,0E0,0E0],"parents":[2147483647,0,0,1,1,2,2,3,3,4,4,5,5,6,6],"right_children":[2,4,6,8,10,12,14,-1,-1,-1,-1,-1,-1,-1,-1],"split_conditions":[3.4467143E-1,2.5675547E-1,4.5828378E-1,9.593553E-2,3.606164E-1,5.573435E-1,4.1768155E-1,-3.3878755E-2,5.3610038E-2,2.0071652E-3,3.8022593E-2,9.96475E-3,-3.074095E-2,-1.8259874E-2,2.660108E-2],"split_indices":[13,51,28,23,79,54,23,0,0,0,0,0,0,0,0],"split_type":[0,0,0,0,0,0,0,0,0,0,0,0,0,0,0],"sum_hessian":[1.5243958E3,3.6734378E2,1.157052E3,1.8135172E2,1.8599205E2,6.1053815E2,5.4651385E2,1.2137328E1,1.692144E2,1.1190015E2,7.409191E1,1.1815931E2,4.923788E2,2.7413452E2,2.7237936E2],"tree_param":{"num_deleted":"0","num_feature":"104","num_nodes":"15","size_leaf_vector":"0"}},{"base_weights":[-4.202792E-3,-2.0642832E-1,5.33353E-1,3.2074034E-2,-5.7969946E-1,9.6210784E-1,-4.134014E-1,-1.5969746E-1,7.482316E-1,1.1189806E0,-6.249348E-1,-5.796401E-1,1.0653834E0,-5.672876E-1,9.799029E-1],"categories":[],"categories_nodes":[],"categories_segments":[],"categories_sizes":[],"default_left":[1,1,1,1,1,1,1,0,0,0,0,0,0,0,0],"id":13,"left_children":[1,3,5,7,9,11,13,-1,-1,-1,-1,-1,-1,-1,-1],"loss_changes":[1.6490843E2,9.815151E1,1.6872893E2,9.261815E1,3.3724228E1,4.6112213E1,2.8420513E1,0E0,0E0,0E0,0E0,0E0,0E0,0E0,0E0],"parents":[2147483647,0,0,1,1,2,2,3,3,4,4,5,5,6,6],"right_children":[2,4,6,8,10,12,14,-1,-1,-1,-1,-1,-1,-1,-1],"split_conditions":[4.8295012E-1,4.0437105E-1,4.492572E-1,3.887758E-1,4.534011E-1,5.164326E-1,5.4191756E-1,-7.984873E-3,3.741158E-2,5.5949032E-2,-3.124674E-2,-2.8982004E-2,5.3269174E-2,-2.836438E-2,4.899515E-2],"split_indices":[41,59,65,7,29,56,41,0,0,0,0,0,0,0,0],"split_type":[0,0,0,0,0,0,0,0,0,0,0,0,0,0,0],"sum_hessian":[1.5149794E3,1.1012944E3,4.136849E2,6.725081E2,4.2878635E2,2.847256E2,1.2895934E2,5.3107477E2,1.4143333E2,1.05065565E1,4.182798E2,1.7585676E1,2.671399E2,1.166667E2,1.2292637E1],"tree_param":{"num_deleted":"0","num_feature":"104","num_nodes":"15","size_leaf_vector":"0"}},{"base_weights":[7.100785E-3,-4.084138E-1,2.2773726E-1,3.8836366E-1,-4.5582518E-1,8.2697785E-1,-2.414903E-1,-5.979221E-1,6.0843134E-1,-3.924724E-1,-7.0439404E-1,1.8528226E-1,9.79782E-1,-5.767493E-1,6.1075187E-1],"categories":[],"categories_nodes":[],"categories_segments":[],"categories_sizes":[],"default_left":[1,1,1,1,1,1,1,0,0,0,0,0,0,0,0],"id":14,"left_children":[1,3,5,7,9,11,13,-1,-1,-1,-1,-1,-1,-1,-1],"loss_changes":[1.4056087E2,2.0265312E1,2.8178024E2,6.963232E0,7.634529E0,4.2963135E1,1.6104604E2,0E0,0E0,0E0,0E0,0E0,0E0,0E0,0E0],"parents":[2147483647,0,0,1,1,2,2,3,3,4,4,5,5,6,6],"right_children":[2,4,6,8,10,12,14,-1,-1,-1,-1,-1,-1,-1,-1],"split_conditions":[3.7546635E-1,2.1458167E-1,4.1923028E-1,1.4832816E-1,4.229452E-1,4.5290977E-1,4.992203E-1,-2.9896105E-2,3.0421568E-2,-1.962362E-2,-3.5219703E-2,9.264113E-3,4.89891E-2,-2.8837467E-2,3.0537594E-2],"split_indices":[65,20,23,10,83,31,95,0,0,0,0,0,0,0,0],"split_type":[0,0,0,0,0,0,0,0,0,0,0,0,0,0,0],"sum_hessian":[1.5311926E3,5.3076886E2,1.00042377E3,2.9405203E1,5.0136368E2,4.3901044E2,5.614133E2,5.0509915E0,2.4354212E1,4.0158942E2,9.977427E1,8.485931E1,3.5415115E2,4.031454E2,1.5826796E2],"tree_param":{"num_deleted":"0","num_feature":"104","num_nodes":"15","size_leaf_vector":"0"}},{"base_weights":[3.1601926E-4,6.055109E-1,-1.9471712E-1,-2.0207252E-1,7.041235E-1,-4.491463E-1,7.899341E-2,-6.907355E-1,-2.4428708E-2,8.347063E-1,3.11181E-2,2.1074091E-1,-5.934474E-1,-3.4426937E-1,5.112386E-1],"categories":[],"categories_nodes":[],"categories_segments":[],"categories_sizes":[],"default_left":[1,1,1,1,1,1,1,0,0,0,0,0,0,0,0],"id":15,"left_children":[1,3,5,7,9,11,13,-1,-1,-1,-1,-1,-1,-1,-1],"loss_changes":[1.785891E2,2.950969E1,7.972325E1,3.5340753E0,2.8874847E1,5.6608955E1,1.0118522E2,0E0,0E0,0E0,0E0,0E0,0E0,0E0,0E0],"parents":[2147483647,0,0,1,1,2,2,3,3,4,4,5,5,6,6],"right_children":[2,4,6,8,10,12,14,-1,-1,-1,-1,-1,-1,-1,-1],"split_conditions":[3.4467143E-1,4.468829E-1,4.583277E-1,1.3710561E-1,5.602013E-1,5.5466235E-1,4.1768155E-1,-3.4536775E-2,-1.2214355E-3,4.1735318E-2,1.5559051E-3,1.0537046E-2,-2.967237E-2,-1.721347E-2,2.5561929E-2],"split_indices":[13,98,28,18,2,54,23,0,0,0,0,0,0,0,0],"split_type":[0,0,0,0,0,0,0,0,0,0,0,0,0,0,0],"sum_hessian":[1.5110442E3,3.6776172E2,1.1432825E3,3.9905804E1,3.2785593E2,5.921786E2,5.511039E2,9.869218E0,3.0036585E1,2.743782E2,5.34777E1,1.0617608E2,4.860025E2,2.785479E2,2.7255597E2],"tree_param":{"num_deleted":"0","num_feature":"104","num_nodes":"15","size_leaf_vector":"0"}},{"base_weights":[-2.2989403E-2,-2.2887975E-1,4.994142E-1,1.0939262E-2,-5.4421324E-1,9.182964E-1,-4.1546828E-1,-1.3710892E-1,9.0528935E-1,9.0315676E-1,-5.9810495E-1,-5.633983E-1,1.0074738E0,-5.7837933E-1,1.0337483E0],"categories":[],"categories_nodes":[],"categories_segments":[],"categories_sizes":[],"default_left":[1,1,1,1,1,1,1,0,0,0,0,0,0,0,0],"id":16,"left_children":[1,3,5,7,9,11,13,-1,-1,-1,-1,-1,-1,-1,-1],"loss_changes":[1.613689E2,8.138263E1,1.6292828E2,8.1184875E1,3.6800964E1,3.9052063E1,3.221024E1,0E0,0E0,0E0,0E0,0E0,0E0,0E0,0E0],"parents":[2147483647,0,0,1,1,2,2,3,3,4,4,5,5,6,6],"right_children":[2,4,6,8,10,12,14,-1,-1,-1,-1,-1,-1,-1,-1],"split_conditions":[4.8284242E-1,4.4509095E-1,4.4914374E-1,4.3864626E-1,4.5181477E-1,5.047345E-1,5.421318E-1,-6.8554464E-3,4.5264468E-2,4.515784E-2,-2.9905248E-2,-2.8169915E-2,5.0373692E-2,-2.8918967E-2,5.1687416E-2],"split_indices":[41,91,65,41,29,54,41,0,0,0,0,0,0,0,0],"split_type":[0,0,0,0,0,0,0,0,0,0,0,0,0,0,0],"sum_hessian":[1.4982357E3,1.0750841E3,4.231516E2,6.112094E2,4.6387473E2,2.9025403E2,1.3289757E2,5.251279E2,8.608149E1,1.6086283E1,4.4778842E2,1.6175653E1,2.7407837E2,1.20007996E2,1.2889583E1],"tree_param":{"num_deleted":"0","num_feature":"104","num_nodes":"15","size_leaf_vector":"0"}},{"base_weights":[-2.5321434E-3,-1.4576152E-1,5.918769E-1,4.6946734E-2,-6.3488066E-1,1.0949928E0,-4.4689476E-1,-3.834119E-1,7.4468267E-1,3.2179096E-1,-6.61669E-1,4.7566104E-1,1.1667424E0,-6.650825E-1,2.775789E-1],"categories":[],"categories_nodes":[],"categories_segments":[],"categories_sizes":[],"default_left":[1,1,1,1,1,1,1,0,0,0,0,0,0,0,0],"id":17,"left_children":[1,3,5,7,9,11,13,-1,-1,-1,-1,-1,-1,-1,-1],"loss_changes":[1.2999982E2,1.16008194E2,1.5544342E2,2.6561276E2,9.127136E0,8.334091E0,1.5589539E1,0E0,0E0,0E0,0E0,0E0,0E0,0E0,0E0],"parents":[2147483647,0,0,1,1,2,2,3,3,4,4,5,5,6,6],"right_children":[2,4,6,8,10,12,14,-1,-1,-1,-1,-1,-1,-1,-1],"split_conditions":[4.8984087E-1,4.194732E-1,5.1150155E-1,4.3262142E-1,4.1915753E-1,4.8811498E-1,7.174761E-1,-1.9170595E-2,3.7234135E-2,1.608955E-2,-3.308345E-2,2.3783052E-2,5.8337122E-2,-3.3254128E-2,1.3878944E-2],"split_indices":[93,23,81,93,60,33,60,0,0,0,0,0,0,0,0],"split_type":[0,0,0,0,0,0,0,0,0,0,0,0,0,0,0],"sum_hessian":[1.5249381E3,1.2294447E3,2.954934E2,8.826092E2,3.468355E2,1.9903784E2,9.645556E1,5.461798E2,3.3642938E2,9.147452E0,3.3768808E2,2.145668E1,1.7758116E2,7.419302E1,2.2262535E1],"tree_param":{"num_deleted":"0","num_feature":"104","num_nodes":"15","size_leaf_vector":"0"}},{"base_weights":[1.4005932E-2,5.959175E-1,-1.6765219E-1,8.9710814E-1,3.599174E-1,-4.1573527E-1,8.102965E-2,-6.8211824E-1,1.0399218E0,5.0482213E-1,-4.0743616E-1,2.2106858E-1,-5.711201E-1,-3.205826E-1,4.94765E-1],"categories":[],"categories_nodes":[],"categories_segments":[],"categories_sizes":[],"default_left":[1,1,1,1,1,1,1,0,0,0,0,0,0,0,0],"id":18,"left_children":[1,3,5,7,9,11,13,-1,-1,-1,-1,-1,-1,-1,-1],"loss_changes":[1.5931544E2,2.516298E1,7.08965E1,3.6084E1,2.2744427E1,5.7038773E1,9.561085E1,0E0,0E0,0E0,0E0,0E0,0E0,0E0,0E0],"parents":[2147483647,0,0,1,1,2,2,3,3,4,4,5,5,6,6],"right_children":[2,4,6,8,10,12,14,-1,-1,-1,-1,-1,-1,-1,-1],"split_conditions":[3.7755513E-1,2.309761E-1,4.5828378E-1,9.593553E-2,7.178692E-1,5.573435E-1,4.3513072E-1,-3.410591E-2,5.199609E-2,2.5241107E-2,-2.0371808E-2,1.1053429E-2,-2.8556004E-2,-1.602913E-2,2.473825E-2],"split_indices":[41,43,28,23,54,54,19,0,0,0,0,0,0,0,0],"split_type":[0,0,0,0,0,0,0,0,0,0,0,0,0,0,0],"sum_hessian":[1.5051688E3,3.5754675E2,1.1476221E3,1.5584775E2,2.01699E2,5.741663E2,5.734557E2,1.2611712E1,1.4323604E2,1.6994856E2,3.1750444E1,1.1253765E2,4.616287E2,2.9110535E2,2.8235034E2],"tree_param":{"num_deleted":"0","num_feature":"104","num_nodes":"15","size_leaf_vector":"0"}},{"base_weights":[-5.9971595E-3,-2.1749862E-1,5.2982086E-1,-2.754158E-2,-5.874299E-1,9.115935E-1,-3.8371298E-1,-1.4538932E-1,7.415625E-1,-6.455304E-1,-2.3363058E-1,-4.5258617E-1,9.9064416E-1,-5.356932E-1,9.7385097E-1],"categories":[],"categories_nodes":[],"categories_segments":[],"categories_sizes":[],"default_left":[1,1,1,1,1,1,1,0,0,0,0,0,0,0,0],"id":19,"left_children":[1,3,5,7,9,11,13,-1,-1,-1,-1,-1,-1,-1,-1],"loss_changes":[1.708526E2,7.5941246E1,1.491593E2,6.4935036E1,7.386673E0,3.2931488E1,2.661352E1,0E0,0E0,0E0,0E0,0E0,0E0,0E0,0E0],"parents":[2147483647,0,0,1,1,2,2,3,3,4,4,5,5,6,6],"right_children":[2,4,6,8,10,12,14,-1,-1,-1,-1,-1,-1,-1,-1],"split_conditions":[4.831033E-1,4.6864644E-1,4.492572E-1,4.0091372E-1,4.783782E-1,5.2488375E-1,5.421318E-1,-7.269466E-3,3.7078124E-2,-3.2276522E-2,-1.168153E-2,-2.262931E-2,4.953221E-2,-2.6784662E-2,4.869255E-2],"split_indices":[41,35,65,15,41,52,41,0,0,0,0,0,0,0,0],"split_type":[0,0,0,0,0,0,0,0,0,0,0,0,0,0,0],"sum_hessian":[1.5055997E3,1.0799207E3,4.25679E2,7.142387E2,3.65682E2,3.0021783E2,1.2546115E2,6.200423E2,9.4196434E1,3.1339243E2,5.228957E1,1.6185139E1,2.8403268E2,1.1337423E2,1.20869255E1],"tree_param":{"num_deleted":"0","num_feature":"104","num_nodes":"15","size_leaf_vector":"0"}},{"base_weights":[-5.571221E-4,-3.8405198E-1,2.0409839E-1,4.496223E-1,-4.345457E-1,7.775333E-1,-2.280297E-1,6.6242707E-1,-4.4804394E-1,-3.7769577E-1,-7.175902E-1,5.1485306E-1,1.0491974E0,-5.585526E-1,5.553844E-1],"categories":[],"categories_nodes":[],"categories_segments":[],"categories_sizes":[],"default_left":[1,1,1,1,1,1,1,0,0,0,0,0,0,0,0],"id":20,"left_children":[1,3,5,7,9,11,13,-1,-1,-1,-1,-1,-1,-1,-1],"loss_changes":[1.1825673E2,2.2265839E1,2.4362823E2,6.1104226E0,7.6918488E0,2.9604507E1,1.4558212E2,0E0,0E0,0E0,0E0,0E0,0E0,0E0,0E0],"parents":[2147483647,0,0,1,1,2,2,3,3,4,4,5,5,6,6],"right_children":[2,4,6,8,10,12,14,-1,-1,-1,-1,-1,-1,-1,-1],"split_conditions":[4.318879E-1,1.9578424E-1,4.193043E-1,4.2039385E-1,4.3159968E-1,4.661985E-1,4.9679366E-1,3.3121355E-2,-2.2402197E-2,-1.888479E-2,-3.587951E-2,2.5742654E-2,5.2459873E-2,-2.7927632E-2,2.7769221E-2],"split_indices":[93,18,23,13,85,93,93,0,0,0,0,0,0,0,0],"split_type":[0,0,0,0,0,0,0,0,0,0,0,0,0,0,0],"sum_hessian":[1.5047571E3,5.232972E2,9.8145984E2,2.9433428E1,4.9386374E2,4.2142657E2,5.600333E2,2.4004799E1,5.4286284E0,4.1320523E2,8.065852E1,2.157279E2,2.0569865E2,3.9406433E2,1.6596898E2],"tree_param":{"num_deleted":"0","num_feature":"104","num_nodes":"15","size_leaf_vector":"0"}},{"base_weights":[1.3413547E-2,5.549439E-1,-1.7446117E-1,8.076049E-1,3.0112055E-1,-4.4175893E-1,9.4974324E-2,-6.779731E-1,9.14711E-1,1.8117965E-3,6.702298E-1,1.2809013E-1,-5.846685E-1,-3.169739E-1,4.9330872E-1],"categories":[],"categories_nodes":[],"categories_segments":[],"categories_sizes":[],"default_left":[1,1,1,1,1,1,1,0,0,0,0,0,0,0,0],"id":21,"left_children":[1,3,5,7,9,11,13,-1,-1,-1,-1,-1,-1,-1,-1],"loss_changes":[1.5233554E2,2.4489586E1,8.010562E1,3.1277878E1,2.1429379E1,4.5536057E1,9.113883E1,0E0,0E0,0E0,0E0,0E0,0E0,0E0,0E0],"parents":[2147483647,0,0,1,1,2,2,3,3,4,4,5,5,6,6],"right_children":[2,4,6,8,10,12,14,-1,-1,-1,-1,-1,-1,-1,-1],"split_conditions":[3.4467143E-1,2.5675547E-1,4.5828378E-1,9.593553E-2,2.8508413E-1,5.575263E-1,4.1768155E-1,-3.3898655E-2,4.573555E-2,9.058983E-5,3.351149E-2,6.4045065E-3,-2.9233426E-2,-1.5848694E-2,2.4665436E-2],"split_indices":[13,51,28,23,75,54,23,0,0,0,0,0,0,0,0],"split_type":[0,0,0,0,0,0,0,0,0,0,0,0,0,0,0],"sum_hessian":[1.4953528E3,3.8465857E2,1.1106942E3,1.9167729E2,1.9298128E2,5.572379E2,5.534563E2,1.2531633E1,1.7914566E2,1.07121735E2,8.585954E1,1.1174815E2,4.4548978E2,2.7217917E2,2.8127713E2],"tree_param":{"num_deleted":"0","num_feature":"104","num_nodes":"15","size_leaf_vector":"0"}},{"base_weights":[-5.2176816E-3,-1.8830264E-1,4.7924626E-1,3.8805686E-2,-5.405118E-1,8.932025E-1,-2.788277E-1,-1.00859374E-1,9.6888673E-1,9.2658824E-1,-5.8537453E-1,-4.9014533E-1,9.555307E-1,5.2435476E-1,-4.791915E-1],"categories":[],"categories_nodes":[],"categories_segments":[],"categories_sizes":[],"default_left":[1,1,1,1,1,1,1,0,0,0,0,0,0,0,0],"id":22,"left_children":[1,3,5,7,9,11,13,-1,-1,-1,-1,-1,-1,-1,-1],"loss_changes":[1.3450325E2,8.804935E1,1.3076314E2,8.713128E1,2.8942406E1,2.368312E1,2.4013535E1,0E0,0E0,0E0,0E0,0E0,0E0,0E0,0E0],"parents":[2147483647,0,0,1,1,2,2,3,3,4,4,5,5,6,6],"right_children":[2,4,6,8,10,12,14,-1,-1,-1,-1,-1,-1,-1,-1],"split_conditions":[4.831033E-1,4.0373617E-1,4.2843726E-1,3.9723802E-1,4.5341378E-1,4.9568132E-1,5.9304404E-1,-5.042969E-3,4.844434E-2,4.6329413E-2,-2.9268727E-2,-2.4507267E-2,4.7776535E-2,2.6217738E-2,-2.3959575E-2],"split_indices":[41,67,73,15,29,52,54,0,0,0,0,0,0,0,0],"split_type":[0,0,0,0,0,0,0,0,0,0,0,0,0,0,0],"sum_hessian":[1.5143997E3,1.0994973E3,4.149024E2,6.690052E2,4.304921E2,2.682453E2,1.466571E2,5.8243567E2,8.6569534E1,1.2190337E1,4.1830176E2,1.1269082E1,2.569762E2,2.8958094E1,1.1769901E2],"tree_param":{"num_deleted":"0","num_feature":"104","num_nodes":"15","size_leaf_vector":"0"}},{"base_weights":[1.0419071E-3,-4.277915E-1,1.8726371E-1,4.464225E-1,-4.7913253E-1,6.418405E-1,-2.2361214E-1,-5.92762E-1,7.496115E-1,-4.230115E-1,-6.62552E-1,5.9575748E-2,8.550636E-1,-5.4692E-1,5.761827E-1],"categories":[],"categories_nodes":[],"categories_segments":[],"categories_sizes":[],"default_left":[1,1,1,1,1,1,1,0,0,0,0,0,0,0,0],"id":23,"left_children":[1,3,5,7,9,11,13,-1,-1,-1,-1,-1,-1,-1,-1],"loss_changes":[1.1878056E2,2.0426651E1,1.9383789E2,8.478111E0,4.1032486E0,6.1106445E1,1.4135725E2,0E0,0E0,0E0,0E0,0E0,0E0,0E0,0E0],"parents":[2147483647,0,0,1,1,2,2,3,3,4,4,5,5,6,6],"right_children":[2,4,6,8,10,12,14,-1,-1,-1,-1,-1,-1,-1,-1],"split_conditions":[3.6554098E-1,1.629963E-1,4.192943E-1,1.4881334E-1,3.4679252E-1,4.4648057E-1,4.974901E-1,-2.96381E-2,3.7480574E-2,-2.1150576E-2,-3.3127602E-2,2.9787875E-3,4.2753182E-2,-2.7346E-2,2.8809136E-2],"split_indices":[65,12,23,10,23,93,93,0,0,0,0,0,0,0,0],"split_type":[0,0,0,0,0,0,0,0,0,0,0,0,0,0,0],"sum_hessian":[1.4853915E3,4.4934293E2,1.0360486E3,2.4498426E1,4.248445E2,4.9159982E2,5.444487E2,5.317507E0,1.918092E1,3.2784097E2,9.7003525E1,1.321117E2,3.5948813E2,3.879433E2,1.5650543E2],"tree_param":{"num_deleted":"0","num_feature":"104","num_nodes":"15","size_leaf_vector":"0"}},{"base_weights":[4.933778E-3,4.9291077E-1,-2.0254724E-1,7.8532904E-1,3.168315E-1,-4.6600533E-1,9.994087E-2,-6.765539E-1,9.250414E-1,5.6984544E-1,1.2578367E-2,-7.090484E-2,-5.7084554E-1,6.3063294E-1,-2.6010913E-1],"categories":[],"categories_nodes":[],"categories_segments":[],"categories_sizes":[],"default_left":[1,1,1,1,1,1,1,0,0,0,0,0,0,0,0],"id":24,"left_children":[1,3,5,7,9,11,13,-1,-1,-1,-1,-1,-1,-1,-1],"loss_changes":[1.5063437E2,2.2605263E1,8.324242E1,3.455986E1,2.1448763E1,2.3079529E1,9.318029E1,0E0,0E0,0E0,0E0,0E0,0E0,0E0,0E0],"parents":[2147483647,0,0,1,1,2,2,3,3,4,4,5,5,6,6],"right_children":[2,4,6,8,10,12,14,-1,-1,-1,-1,-1,-1,-1,-1],"split_conditions":[4.0904102E-1,2.3808688E-1,4.3327263E-1,9.593553E-2,4.2656815E-1,5.6196827E-1,6.2249345E-1,-3.3827696E-2,4.6252068E-2,2.8492272E-2,6.2891835E-4,-3.5452421E-3,-2.8542278E-2,3.1531647E-2,-1.3005457E-2],"split_indices":[41,45,8,23,12,52,54,0,0,0,0,0,0,0,0],"split_type":[0,0,0,0,0,0,0,0,0,0,0,0,0,0,0],"sum_hessian":[1.4858202E3,4.4286505E2,1.0429552E3,1.6514519E2,2.7771985E2,5.571519E2,4.8580322E2,1.407096E1,1.5107423E2,1.5115112E2,1.2656873E2,1.1718925E2,4.3996268E2,1.9606445E2,2.8973877E2],"tree_param":{"num_deleted":"0","num_feature":"104","num_nodes":"15","size_leaf_vector":"0"}},{"base_weights":[-1.3406453E-2,-2.0084478E-1,4.3538284E-1,-1.1825532E-2,-5.8065706E-1,8.5152286E-1,-2.9943392E-1,-1.2757304E-1,8.362718E-1,-6.685941E-1,-3.7317416E-1,8.996682E-1,-6.7173666E-1,-4.3570957E-1,8.4523696E-1],"categories":[],"categories_nodes":[],"categories_segments":[],"categories_sizes":[],"default_left":[1,1,1,1,1,1,1,0,0,0,0,0,0,0,0],"id":25,"left_children":[1,3,5,7,9,11,13,-1,-1,-1,-1,-1,-1,-1,-1],"loss_changes":[1.2664092E2,7.622879E1,1.3588217E2,6.9809555E1,6.1882477E0,2.1390564E1,2.5499096E1,0E0,0E0,0E0,0E0,0E0,0E0,0E0,0E0],"parents":[2147483647,0,0,1,1,2,2,3,3,4,4,5,5,6,6],"right_children":[2,4,6,8,10,12,14,-1,-1,-1,-1,-1,-1,-1,-1],"split_conditions":[4.8284644E-1,4.7046995E-1,4.2984828E-1,4.010409E-1,4.7558618E-1,5.0931704E-1,5.3595126E-1,-6.378652E-3,4.1813593E-2,-3.342971E-2,-1.8658709E-2,4.4983413E-2,-3.3586834E-2,-2.1785479E-2,4.226185E-2],"split_indices":[43,31,69,15,43,24,43,0,0,0,0,0,0,0,0],"split_type":[0,0,0,0,0,0,0,0,0,0,0,0,0,0,0],"sum_hessian":[1.5034342E3,1.0608988E3,4.425354E2,7.090571E2,3.5184174E2,2.8243088E2,1.6010452E2,6.246545E2,8.440266E1,2.4554881E2,1.0629291E2,2.7417447E2,8.2564E0,1.43625E2,1.6479523E1],"tree_param":{"num_deleted":"0","num_feature":"104","num_nodes":"15","size_leaf_vector":"0"}},{"base_weights":[1.0057682E-2,-4.1160867E-1,1.9352515E-1,2.6238805E-1,-4.552411E-1,6.516801E-1,-1.6831604E-1,-5.878258E-1,4.8316956E-1,-3.907689E-1,-6.661521E-1,1.2303427E-1,8.7310165E-1,-5.021519E-1,4.923816E-1],"categories":[],"categories_nodes":[],"categories_segments":[],"categories_sizes":[],"default_left":[1,1,1,1,1,1,1,0,0,0,0,0,0,0,0],"id":26,"left_children":[1,3,5,7,9,11,13,-1,-1,-1,-1,-1,-1,-1,-1],"loss_changes":[1.1527198E2,1.3404961E1,1.722284E2,5.5590773E0,5.514183E0,5.3544235E1,1.2837068E2,0E0,0E0,0E0,0E0,0E0,0E0,0E0,0E0],"parents":[2147483647,0,0,1,1,2,2,3,3,4,4,5,5,6,6],"right_children":[2,4,6,8,10,12,14,-1,-1,-1,-1,-1,-1,-1,-1],"split_conditions":[3.655339E-1,2.1458167E-1,4.2477E-1,2.8865895E-1,3.590158E-1,3.990155E-1,4.9329567E-1,-2.9391289E-2,2.4158478E-2,-1.9538445E-2,-3.330761E-2,6.1517134E-3,4.3655083E-2,-2.5107596E-2,2.461908E-2],"split_indices":[65,20,15,54,15,59,93,0,0,0,0,0,0,0,0],"split_type":[0,0,0,0,0,0,0,0,0,0,0,0,0,0,0],"sum_hessian":[1.4880029E3,4.507631E2,1.0372399E3,2.7101944E1,4.2366113E2,4.5735123E2,5.798886E2,5.2442465E0,2.1857698E1,3.2665924E2,9.700189E1,1.3547032E2,3.2188092E2,3.8539636E2,1.9449223E2],"tree_param":{"num_deleted":"0","num_feature":"104","num_nodes":"15","size_leaf_vector":"0"}},{"base_weights":[-4.4810185E-3,5.075193E-1,-1.805634E-1,8.083119E-1,3.012842E-1,-4.1095528E-1,5.802806E-2,-6.6419965E-1,9.3612164E-1,4.202292E-1,-3.7563306E-1,1.7786562E-1,-5.607595E-1,-3.4007668E-1,4.255332E-1],"categories":[],"categories_nodes":[],"categories_segments":[],"categories_sizes":[],"default_left":[1,1,1,1,1,1,1,0,0,0,0,0,0,0,0],"id":27,"left_children":[1,3,5,7,9,11,13,-1,-1,-1,-1,-1,-1,-1,-1],"loss_changes":[1.3347038E2,2.325856E1,6.057787E1,2.95121E1,1.8382679E1,4.954464E1,7.944854E1,0E0,0E0,0E0,0E0,0E0,0E0,0E0,0E0],"parents":[2147483647,0,0,1,1,2,2,3,3,4,4,5,5,6,6],"right_children":[2,4,6,8,10,12,14,-1,-1,-1,-1,-1,-1,-1,-1],"split_conditions":[3.4461796E-1,2.4135882E-1,4.5828378E-1,9.593553E-2,7.1580935E-1,5.573435E-1,4.3472946E-1,-3.3209983E-2,4.6806082E-2,2.101146E-2,-1.8781653E-2,8.893281E-3,-2.8037975E-2,-1.7003834E-2,2.127666E-2],"split_indices":[13,3,28,23,52,54,19,0,0,0,0,0,0,0,0],"split_type":[0,0,0,0,0,0,0,0,0,0,0,0,0,0,0],"sum_hessian":[1.4784506E3,3.7785815E2,1.1005924E3,1.5250754E2,2.2535062E2,5.595499E2,5.410425E2,1.1844847E1,1.4066269E2,1.9199355E2,3.335708E1,1.13447075E2,4.4610287E2,2.59745E2,2.8129752E2],"tree_param":{"num_deleted":"0","num_feature":"104","num_nodes":"15","size_leaf_vector":"0"}},{"base_weights":[-8.693478E-3,-1.9087286E-1,4.6858358E-1,1.4213654E-2,-5.2111346E-1,7.948997E-1,-3.6354336E-1,-1.2793422E-1,6.826267E-1,9.565485E-1,-5.661444E-1,-5.4259974E-1,8.6677235E-1,-5.269828E-1,9.218018E-1],"categories":[],"categories_nodes":[],"categories_segments":[],"categories_sizes":[],"default_left":[1,1,1,1,1,1,1,0,0,0,0,0,0,0,0],"id":28,"left_children":[1,3,5,7,9,11,13,-1,-1,-1,-1,-1,-1,-1,-1],"loss_changes":[1.2681108E2,7.149414E1,1.0969329E2,6.2046165E1,2.7450104E1,2.8321823E1,2.4472141E1,0E0,0E0,0E0,0E0,0E0,0E0,0E0,0E0],"parents":[2147483647,0,0,1,1,2,2,3,3,4,4,5,5,6,6],"right_children":[2,4,6,8,10,12,14,-1,-1,-1,-1,-1,-1,-1,-1],"split_conditions":[4.831033E-1,4.0437105E-1,4.5991772E-1,4.3848062E-1,4.5341378E-1,5.047345E-1,5.4191756E-1,-6.396711E-3,3.4131337E-2,4.7827426E-2,-2.830722E-2,-2.7129987E-2,4.333862E-2,-2.634914E-2,4.6090093E-2],"split_indices":[41,59,61,41,29,54,41,0,0,0,0,0,0,0,0],"split_type":[0,0,0,0,0,0,0,0,0,0,0,0,0,0,0],"sum_hessian":[1.4564075E3,1.0544991E3,4.0190833E2,6.511056E2,4.0339365E2,2.8872888E2,1.1317944E2,5.3758813E2,1.13517426E2,1.1331028E1,3.9206262E2,1.4390078E1,2.7433878E2,1.0093496E2,1.2244484E1],"tree_param":{"num_deleted":"0","num_feature":"104","num_nodes":"15","size_leaf_vector":"0"}},{"base_weights":[3.1450172E-3,-3.867395E-1,1.9261694E-1,5.499733E-1,-4.3093565E-1,6.463486E-1,-1.9416463E-1,-2.5255668E-1,1.1149793E0,-3.619071E-1,-6.738057E-1,1.3316463E-1,7.8160423E-1,-5.2824336E-1,5.056412E-1],"categories":[],"categories_nodes":[],"categories_segments":[],"categories_sizes":[],"default_left":[1,1,1,1,1,1,1,0,0,0,0,0,0,0,0],"id":29,"left_children":[1,3,5,7,9,11,13,-1,-1,-1,-1,-1,-1,-1,-1],"loss_changes":[1.07492165E2,1.9938004E1,1.7197409E2,1.0203062E1,7.3841934E0,3.1189377E1,1.2403084E2,0E0,0E0,0E0,0E0,0E0,0E0,0E0,0E0],"parents":[2147483647,0,0,1,1,2,2,3,3,4,4,5,5,6,6],"right_children":[2,4,6,8,10,12,14,-1,-1,-1,-1,-1,-1,-1,-1],"split_conditions":[3.7536538E-1,1.9924787E-1,4.1947192E-1,3.0314666E-1,3.798417E-1,4.4649518E-1,4.9679366E-1,-1.2627834E-2,5.5748966E-2,-1.8095355E-2,-3.3690285E-2,6.6582314E-3,3.9080214E-2,-2.6412169E-2,2.528206E-2],"split_indices":[65,14,23,98,11,93,93,0,0,0,0,0,0,0,0],"split_type":[0,0,0,0,0,0,0,0,0,0,0,0,0,0,0],"sum_hessian":[1.4531019E3,4.7487997E2,9.78222E2,2.0880718E1,4.5399924E2,4.4984265E2,5.2837933E2,8.8554735E0,1.2025245E1,3.5546042E2,9.8538826E1,9.4244995E1,3.5559766E2,3.5781027E2,1.7056909E2],"tree_param":{"num_deleted":"0","num_feature":"104","num_nodes":"15","size_leaf_vector":"0"}},{"base_weights":[-6.59105E-5,7.2853833E-1,-1.1226388E-1,-6.6037744E-1,8.237415E-1,-1.8371193E-1,5.0219053E-1,-2.8730226E-1,8.8831E-1,1.0731309E-2,-5.474103E-1,-3.5269722E-1,7.684267E-1],"categories":[],"categories_nodes":[],"categories_segments":[],"categories_sizes":[],"default_left":[1,1,1,0,1,1,1,0,0,0,0,0,0],"id":30,"left_children":[1,3,5,-1,7,9,11,-1,-1,-1,-1,-1,-1],"loss_changes":[1.20158066E2,2.6479485E1,5.6010567E1,0E0,1.345533E1,8.075057E1,3.0529976E1,0E0,0E0,0E0,0E0,0E0,0E0],"parents":[2147483647,0,0,1,1,2,2,4,4,5,5,6,6],"right_children":[2,4,6,-1,8,10,12,-1,-1,-1,-1,-1,-1],"split_conditions":[2.5085983E-1,1.1298441E-1,5.1110154E-1,-3.3018872E-2,5.0260806E-1,4.720189E-1,5.623841E-1,-1.4365113E-2,4.44155E-2,5.3656544E-4,-2.7370516E-2,-1.7634861E-2,3.8421337E-2],"split_indices":[41,15,81,0,52,93,76,0,0,0,0,0,0],"split_type":[0,0,0,0,0,0,0,0,0,0,0,0,0],"sum_hessian":[1.4678605E3,1.9514058E2,1.2727198E3,1.213705E1,1.8300352E2,1.1407731E3,1.3194676E2,9.8617E0,1.7314183E2,7.4398737E2,3.967858E2,3.1256615E1,1.0069015E2],"tree_param":{"num_deleted":"0","num_feature":"104","num_nodes":"13","size_leaf_vector":"0"}},{"base_weights":[-9.539317E-3,-1.8790337E-1,4.184386E-1,-4.6866266E-3,-5.713797E-1,7.851109E-1,-2.8532463E-1,-1.3733321E-1,6.153814E-1,1.9618936E-1,-5.924425E-1,-3.86376E-1,8.6516434E-1,5.3520846E-1,-4.9013123E-1],"categories":[],"categories_nodes":[],"categories_segments":[],"categories_sizes":[],"default_left":[1,1,1,1,1,1,1,0,0,0,0,0,0,0,0],"id":31,"left_children":[1,3,5,7,9,11,13,-1,-1,-1,-1,-1,-1,-1,-1],"loss_changes":[1.1303457E2,7.342751E1,1.1262854E2,5.8337166E1,5.578972E0,2.7216599E1,2.5460335E1,0E0,0E0,0E0,0E0,0E0,0E0,0E0,0E0],"parents":[2147483647,0,0,1,1,2,2,3,3,4,4,5,5,6,6],"right_children":[2,4,6,8,10,12,14,-1,-1,-1,-1,-1,-1,-1,-1],"split_conditions":[4.8284644E-1,4.6837622E-1,4.2897165E-1,3.9615214E-1,4.0049112E-1,5.002159E-1,5.931029E-1,-6.866661E-3,3.076907E-2,9.809468E-3,-2.9622126E-2,-1.93188E-2,4.3258216E-2,2.6760424E-2,-2.4506561E-2],"split_indices":[43,33,73,7,59,52,54,0,0,0,0,0,0,0,0],"split_type":[0,0,0,0,0,0,0,0,0,0,0,0,0,0,0],"sum_hessian":[1.4787228E3,1.0441315E3,4.3459125E2,7.0723975E2,3.3689172E2,2.856482E2,1.4894304E2,5.832483E2,1.2399148E2,8.775636E0,3.281161E2,1.8026426E1,2.6762177E2,2.9428406E1,1.1951463E2],"tree_param":{"num_deleted":"0","num_feature":"104","num_nodes":"15","size_leaf_vector":"0"}},{"base_weights":[9.637034E-3,-3.8538784E-1,1.7709082E-1,3.660532E-1,-4.3583778E-1,5.767245E-1,-1.903056E-1,-4.114466E-1,6.875185E-1,-3.6827007E-1,-6.637601E-1,9.0814695E-2,7.5249493E-1,-5.4440063E-1,4.5884365E-1],"categories":[],"categories_nodes":[],"categories_segments":[],"categories_sizes":[],"default_left":[1,1,1,1,1,1,1,0,0,0,0,0,0,0,0],"id":32,"left_children":[1,3,5,7,9,11,13,-1,-1,-1,-1,-1,-1,-1,-1],"loss_changes":[9.7153305E1,1.6735947E1,1.515485E2,7.294382E0,6.0727463E0,4.2148132E1,1.2394739E2,0E0,0E0,0E0,0E0,0E0,0E0,0E0,0E0],"parents":[2147483647,0,0,1,1,2,2,3,3,4,4,5,5,6,6],"right_children":[2,4,6,8,10,12,14,-1,-1,-1,-1,-1,-1,-1,-1],"split_conditions":[3.648177E-1,2.3685785E-1,4.193009E-1,2.9801634E-1,3.5801935E-1,4.464528E-1,4.9438608E-1,-2.057233E-2,3.4375925E-2,-1.8413505E-2,-3.3188008E-2,4.540735E-3,3.7624747E-2,-2.7220031E-2,2.2942184E-2],"split_indices":[65,14,23,52,15,93,93,0,0,0,0,0,0,0,0],"split_type":[0,0,0,0,0,0,0,0,0,0,0,0,0,0,0],"sum_hessian":[1.4666853E3,4.3625494E2,1.0304304E3,2.7052847E1,4.092021E2,4.9328848E2,5.3714197E2,7.8315225E0,1.9221325E1,3.176503E2,9.15518E1,1.3144127E2,3.618472E2,3.4766214E2,1.8947981E2],"tree_param":{"num_deleted":"0","num_feature":"104","num_nodes":"15","size_leaf_vector":"0"}},{"base_weights":[1.0727302E-2,5.1228935E-1,-1.4793508E-1,-6.7442054E-1,5.6006217E-1,-2.3105858E-1,4.6702677E-1,8.9926046E-1,3.0215982E-1,-4.4228714E-2,-5.166326E-1,-3.4627178E-1,7.5064176E-1],"categories":[],"categories_nodes":[],"categories_segments":[],"categories_sizes":[],"default_left":[1,1,1,0,1,1,1,0,0,0,0,0,0],"id":33,"left_children":[1,3,5,-1,7,9,11,-1,-1,-1,-1,-1,-1],"loss_changes":[1.1623438E2,2.0277016E1,5.6831223E1,0E0,2.9293663E1,5.216764E1,3.0814104E1,0E0,0E0,0E0,0E0,0E0,0E0],"parents":[2147483647,0,0,1,1,2,2,4,4,5,5,6,6],"right_children":[2,4,6,-1,8,10,12,-1,-1,-1,-1,-1,-1],"split_conditions":[3.6981773E-1,9.9643335E-2,5.1142204E-1,-3.3721026E-2,2.2531638E-1,4.720164E-1,6.157022E-1,4.4963025E-2,1.5107991E-2,-2.2114357E-3,-2.583163E-2,-1.731359E-2,3.7532087E-2],"split_indices":[41,23,81,0,41,93,54,0,0,0,0,0,0],"split_type":[0,0,0,0,0,0,0,0,0,0,0,0,0],"sum_hessian":[1.4586633E3,3.5000427E2,1.108659E3,1.3037067E1,3.369672E2,9.77197E2,1.3146204E2,1.4447025E2,1.9249696E2,5.914259E2,3.8577112E2,3.393335E1,9.7528694E1],"tree_param":{"num_deleted":"0","num_feature":"104","num_nodes":"13","size_leaf_vector":"0"}},{"base_weights":[-1.6826954E-2,-1.8994787E-1,4.2800388E-1,-1.40320035E-2,-5.521078E-1,7.206017E-1,-3.4565315E-1,-1.2564106E-1,6.7985064E-1,-6.238457E-1,-1.789612E-1,-3.551345E-1,8.210855E-1,-5.070126E-1,8.998591E-1],"categories":[],"categories_nodes":[],"categories_segments":[],"categories_sizes":[],"default_left":[1,1,1,1,1,1,1,0,0,0,0,0,0,0,0],"id":34,"left_children":[1,3,5,7,9,11,13,-1,-1,-1,-1,-1,-1,-1,-1],"loss_changes":[1.1228307E2,6.685555E1,9.271819E1,5.4869595E1,9.072502E0,3.2364746E1,2.312043E1,0E0,0E0,0E0,0E0,0E0,0E0,0E0,0E0],"parents":[2147483647,0,0,1,1,2,2,3,3,4,4,5,5,6,6],"right_children":[2,4,6,8,10,12,14,-1,-1,-1,-1,-1,-1,-1,-1],"split_conditions":[4.831033E-1,4.6864644E-1,4.492572E-1,4.0091372E-1,4.781886E-1,5.718317E-1,5.421318E-1,-6.2820534E-3,3.3992533E-2,-3.1192286E-2,-8.948061E-3,-1.7756725E-2,4.1054275E-2,-2.535063E-2,4.4992954E-2],"split_indices":[41,35,65,15,41,56,41,0,0,0,0,0,0,0,0],"split_type":[0,0,0,0,0,0,0,0,0,0,0,0,0,0,0],"sum_hessian":[1.4559857E3,1.0484998E3,4.0748602E2,7.0640753E2,3.420922E2,2.9571494E2,1.1177109E2,6.0923303E2,9.717448E1,2.8636612E2,5.5726093E1,2.5046272E1,2.7066867E2,9.947656E1,1.2294528E1],"tree_param":{"num_deleted":"0","num_feature":"104","num_nodes":"15","size_leaf_vector":"0"}},{"base_weights":[2.5511307E-3,-3.6708477E-1,1.8506537E-1,3.3385918E-1,-4.1518456E-1,6.190494E-1,-1.918564E-1,-5.7867754E-1,5.477893E-1,-3.4428006E-1,-6.6065484E-1,3.8350865E-1,8.793707E-1,-5.058046E-1,4.8034063E-1],"categories":[],"categories_nodes":[],"categories_segments":[],"categories_sizes":[],"default_left":[1,1,1,1,1,1,1,0,0,0,0,0,0,0,0],"id":35,"left_children":[1,3,5,7,9,11,13,-1,-1,-1,-1,-1,-1,-1,-1],"loss_changes":[9.806371E1,1.6338257E1,1.5929388E2,6.4485407E0,7.6060944E0,2.7410889E1,1.1030671E2,0E0,0E0,0E0,0E0,0E0,0E0,0E0,0E0],"parents":[2147483647,0,0,1,1,2,2,3,3,4,4,5,5,6,6],"right_children":[2,4,6,8,10,12,14,-1,-1,-1,-1,-1,-1,-1,-1],"split_conditions":[3.7531438E-1,1.9590417E-1,4.193043E-1,1.4881334E-1,3.798417E-1,4.6494353E-1,4.974901E-1,-2.8933877E-2,2.7389465E-2,-1.7214004E-2,-3.303274E-2,1.9175433E-2,4.3968536E-2,-2.529023E-2,2.4017032E-2],"split_indices":[65,18,23,10,11,93,93,0,0,0,0,0,0,0,0],"split_type":[0,0,0,0,0,0,0,0,0,0,0,0,0,0,0],"sum_hessian":[1.4515679E3,4.7948416E2,9.7208374E2,3.0408543E1,4.4907562E2,4.5154126E2,5.205425E2,5.4511642E0,2.4957378E1,3.502949E2,9.878073E1,2.3835185E2,2.1318939E2,3.5499185E2,1.6555066E2],"tree_param":{"num_deleted":"0","num_feature":"104","num_nodes":"15","size_leaf_vector":"0"}},{"base_weights":[9.034946E-3,4.8748598E-1,-1.4546296E-1,-2.2314474E-1,5.701994E-1,-2.2927965E-1,4.6760052E-1,-3.2062855E-1,8.4675074E-1,6.860424E-1,-1.8480211E-2,-5.091897E-2,-5.2836317E-1,-2.6699474E-1,7.1327376E-1],"categories":[],"categories_nodes":[],"categories_segments":[],"categories_sizes":[],"default_left":[1,1,1,1,1,1,1,0,0,0,0,0,0,0,0],"id":36,"left_children":[1,3,5,7,9,11,13,-1,-1,-1,-1,-1,-1,-1,-1],"loss_changes":[1.0778185E2,2.1046867E1,5.674524E1,4.2165556E0,2.1772148E1,5.1735146E1,2.4174736E1,0E0,0E0,0E0,0E0,0E0,0E0,0E0,0E0],"parents":[2147483647,0,0,1,1,2,2,3,3,4,4,5,5,6,6],"right_children":[2,4,6,8,10,12,14,-1,-1,-1,-1,-1,-1,-1,-1],"split_conditions":[3.6981773E-1,2.4939659E-1,5.1110154E-1,3.0035758E-1,5.7121134E-1,4.727734E-1,5.623841E-1,-1.6031427E-2,4.2337537E-2,3.4302123E-2,-9.240106E-4,-2.5459486E-3,-2.6418159E-2,-1.3349737E-2,3.566369E-2],"split_indices":[41,18,81,11,42,93,76,0,0,0,0,0,0,0,0],"split_type":[0,0,0,0,0,0,0,0,0,0,0,0,0,0,0],"sum_hessian":[1.4561348E3,3.5490506E2,1.1012297E3,3.6825096E1,3.1807996E2,9.6933093E2,1.318988E2,3.4391796E1,2.4333003E0,2.6564062E2,5.2439346E1,6.0794727E2,3.6138367E2,3.30345E1,9.88643E1],"tree_param":{"num_deleted":"0","num_feature":"104","num_nodes":"15","size_leaf_vector":"0"}},{"base_weights":[-1.0208459E-2,-1.7059079E-1,4.030404E-1,-1.9751198E-3,-5.334009E-1,7.307165E-1,-2.4602546E-1,-1.15500584E-1,6.556238E-1,-5.9787816E-1,-5.340803E-2,-5.402816E-1,8.0562466E-1,-3.895826E-1,8.068787E-1],"categories":[],"categories_nodes":[],"categories_segments":[],"categories_sizes":[],"default_left":[1,1,1,1,1,1,1,0,0,0,0,0,0,0,0],"id":37,"left_children":[1,3,5,7,9,11,13,-1,-1,-1,-1,-1,-1,-1,-1],"loss_changes":[9.643376E1,6.411969E1,8.670169E1,5.3571705E1,1.0260384E1,2.619728E1,2.1056087E1,0E0,0E0,0E0,0E0,0E0,0E0,0E0,0E0],"parents":[2147483647,0,0,1,1,2,2,3,3,4,4,5,5,6,6],"right_children":[2,4,6,8,10,12,14,-1,-1,-1,-1,-1,-1,-1,-1],"split_conditions":[4.8310506E-1,4.6864644E-1,4.2897165E-1,4.0056497E-1,4.7965246E-1,5.047345E-1,5.3574264E-1,-5.7750293E-3,3.278119E-2,-2.9893909E-2,-2.6704015E-3,-2.701408E-2,4.0281232E-2,-1.9479131E-2,4.0343937E-2],"split_indices":[41,35,73,15,41,54,41,0,0,0,0,0,0,0,0],"split_type":[0,0,0,0,0,0,0,0,0,0,0,0,0,0,0],"sum_hessian":[1.4529557E3,1.0471448E3,4.0581085E2,7.1558344E2,3.3156137E2,2.6958636E2,1.3622447E2,6.1093774E2,1.046457E2,2.9208066E2,3.9480694E1,1.4658412E1,2.5492796E2,1.2043402E2,1.579046E1],"tree_param":{"num_deleted":"0","num_feature":"104","num_nodes":"15","size_leaf_vector":"0"}},{"base_weights":[9.335116E-3,-3.436769E-1,1.9095315E-1,-2.7143785E-1,-6.952247E-1,7.2316444E-1,-1.3553199E-1,-3.8287425E-1,9.4731516E-1,7.749659E-1,-4.1527113E-1,-4.2783272E-1,3.786055E-1],"categories":[],"categories_nodes":[],"categories_segments":[],"categories_sizes":[],"default_left":[1,1,1,1,0,1,1,0,0,0,0,0,0],"id":38,"left_children":[1,3,5,7,-1,9,11,-1,-1,-1,-1,-1,-1],"loss_changes":[9.3320786E1,1.2368702E1,1.6709113E2,5.6294273E1,0E0,2.188005E1,8.9805374E1,0E0,0E0,0E0,0E0,0E0,0E0],"parents":[2147483647,0,0,1,1,2,2,3,3,5,5,6,6],"right_children":[2,4,6,8,-1,10,12,-1,-1,-1,-1,-1,-1],"split_conditions":[4.3060482E-1,4.319515E-1,4.078369E-1,3.51542E-1,-3.4761235E-2,7.246999E-1,4.9189037E-1,-1.9143714E-2,4.736576E-2,3.8748294E-2,-2.0763557E-2,-2.1391636E-2,1.8930277E-2],"split_indices":[93,81,21,65,0,74,93,0,0,0,0,0,0],"split_type":[0,0,0,0,0,0,0,0,0,0,0,0,0],"sum_hessian":[1.4535358E3,4.9347443E2,9.6006134E2,4.1082645E2,8.264798E1,3.6456317E2,5.9549817E2,3.7703793E2,3.378853E1,3.4900204E2,1.556113E1,3.7976157E2,2.157366E2],"tree_param":{"num_deleted":"0","num_feature":"104","num_nodes":"13","size_leaf_vector":"0"}},{"base_weights":[1.7046822E-2,4.691043E-1,-1.3642402E-1,-6.585798E-1,5.1041293E-1,-2.208933E-1,4.3361768E-1,8.0167043E-1,2.8319538E-1,-4.7459032E-2,-5.05639E-1,-2.9600972E-1,7.01839E-1],"categories":[],"categories_nodes":[],"categories_segments":[],"categories_sizes":[],"default_left":[1,1,1,0,1,1,1,0,0,0,0,0,0],"id":39,"left_children":[1,3,5,-1,7,9,11,-1,-1,-1,-1,-1,-1],"loss_changes":[1.00845085E2,1.7497246E1,5.235156E1,0E0,2.3328835E1,4.6686554E1,2.768356E1,0E0,0E0,0E0,0E0,0E0,0E0],"parents":[2147483647,0,0,1,1,2,2,4,4,5,5,6,6],"right_children":[2,4,6,-1,8,10,12,-1,-1,-1,-1,-1,-1],"split_conditions":[3.7750295E-1,9.5799886E-2,5.0892717E-1,-3.2928992E-2,2.415067E-1,4.7226176E-1,6.1527836E-1,4.0083524E-2,1.4159769E-2,-2.3729517E-3,-2.528195E-2,-1.4800486E-2,3.509195E-2],"split_indices":[41,17,83,0,51,93,54,0,0,0,0,0,0],"split_type":[0,0,0,0,0,0,0,0,0,0,0,0,0],"sum_hessian":[1.4516451E3,3.6739746E2,1.0842477E3,1.2454669E1,3.5494278E2,9.448513E2,1.393964E2,1.5444289E2,2.004999E2,5.8792303E2,3.5692825E2,3.744185E1,1.0195455E2],"tree_param":{"num_deleted":"0","num_feature":"104","num_nodes":"13","size_leaf_vector":"0"}},{"base_weights":[-3.2971338E-3,-1.6481128E-1,4.0087727E-1,3.3180267E-2,-5.0134724E-1,6.8025726E-1,-3.2888803E-1,-1.3298246E-1,6.445195E-1,8.594928E-1,-5.503599E-1,-2.6873544E-1,7.7731085E-1,-4.6866807E-1,8.4224E-1],"categories":[],"categories_nodes":[],"categories_segments":[],"categories_sizes":[],"default_left":[1,1,1,1,1,1,1,0,0,0,0,0,0,0,0],"id":40,"left_children":[1,3,5,7,9,11,13,-1,-1,-1,-1,-1,-1,-1,-1],"loss_changes":[9.2635635E1,6.757234E1,8.282998E1,6.5023705E1,2.5525322E1,2.72249E1,1.8867317E1,0E0,0E0,0E0,0E0,0E0,0E0,0E0,0E0],"parents":[2147483647,0,0,1,1,2,2,3,3,4,4,5,5,6,6],"right_children":[2,4,6,8,10,12,14,-1,-1,-1,-1,-1,-1,-1,-1],"split_conditions":[4.8277718E-1,4.0373617E-1,4.492572E-1,3.887758E-1,4.5341378E-1,5.7298785E-1,5.4191756E-1,-6.649123E-3,3.2225978E-2,4.297464E-2,-2.7517995E-2,-1.3436772E-2,3.8865544E-2,-2.3433404E-2,4.2112E-2],"split_indices":[41,67,65,7,29,56,41,0,0,0,0,0,0,0,0],"split_type":[0,0,0,0,0,0,0,0,0,0,0,0,0,0,0],"sum_hessian":[1.4170411E3,1.01287384E3,4.0416733E2,6.38268E2,3.746058E2,2.9232343E2,1.1184392E2,5.0247675E2,1.3579129E2,1.2448065E1,3.621577E2,2.6958036E1,2.653654E2,1.0045403E2,1.1389881E1],"tree_param":{"num_deleted":"0","num_feature":"104","num_nodes":"15","size_leaf_vector":"0"}},{"base_weights":[7.0142047E-3,-3.7449148E-1,1.6133557E-1,2.8074813E-1,-4.305708E-1,5.1564765E-1,-1.8172815E-1,-5.620522E-1,4.4547546E-1,-3.6185735E-1,-6.1158496E-1,8.898312E-2,7.0064765E-1,-4.984919E-1,4.5485696E-1],"categories":[],"categories_nodes":[],"categories_segments":[],"categories_sizes":[],"default_left":[1,1,1,1,1,1,1,0,0,0,0,0,0,0,0],"id":41,"left_children":[1,3,5,7,9,11,13,-1,-1,-1,-1,-1,-1,-1,-1],"loss_changes":[8.534327E1,1.5461845E1,1.2554236E2,4.9040174E0,4.567032E0,4.003302E1,1.0611023E2,0E0,0E0,0E0,0E0,0E0,0E0,0E0,0E0],"parents":[2147483647,0,0,1,1,2,2,3,3,4,4,5,5,6,6],"right_children":[2,4,6,8,10,12,14,-1,-1,-1,-1,-1,-1,-1,-1],"split_conditions":[3.6554098E-1,3.8142478E-1,4.1923028E-1,1.4832816E-1,3.5094452E-1,4.001627E-1,4.9618763E-1,-2.810261E-2,2.2273773E-2,-1.8092869E-2,-3.0579248E-2,4.449156E-3,3.5032384E-2,-2.4924597E-2,2.2742849E-2],"split_indices":[65,98,23,10,7,59,93,0,0,0,0,0,0,0,0],"split_type":[0,0,0,0,0,0,0,0,0,0,0,0,0,0,0],"sum_hessian":[1.4475538E3,4.1649316E2,1.0310607E3,3.2519863E1,3.8397333E2,5.0696756E2,5.240931E2,4.9225297E0,2.7597332E1,2.804955E2,1.03477806E2,1.5378195E2,3.531856E2,3.5010052E2,1.7399254E2],"tree_param":{"num_deleted":"0","num_feature":"104","num_nodes":"15","size_leaf_vector":"0"}},{"base_weights":[1.3127448E-2,4.5452416E-1,-1.5013817E-1,-6.687838E-1,4.9412507E-1,-3.7743366E-1,6.7275956E-2,7.8383106E-1,2.6338822E-1,1.6655977E-1,-5.2504176E-1,-3.1650224E-1,4.0601772E-1],"categories":[],"categories_nodes":[],"categories_segments":[],"categories_sizes":[],"default_left":[1,1,1,0,1,1,1,0,0,0,0,0,0],"id":42,"left_children":[1,3,5,-1,7,9,11,-1,-1,-1,-1,-1,-1],"loss_changes":[1.05765E2,1.7958168E1,5.297191E1,0E0,2.5418999E1,4.2160057E1,7.142936E1,0E0,0E0,0E0,0E0,0E0,0E0],"parents":[2147483647,0,0,1,1,2,2,4,4,5,5,6,6],"right_children":[2,4,6,-1,8,10,12,-1,-1,-1,-1,-1,-1],"split_conditions":[3.4467143E-1,8.472035E-2,4.5825213E-1,-3.343919E-2,2.2779801E-1,5.573435E-1,4.1737905E-1,3.9191555E-2,1.3169411E-2,8.327989E-3,-2.6252089E-2,-1.5825113E-2,2.0300886E-2],"split_indices":[13,75,28,0,93,54,23,0,0,0,0,0,0],"split_type":[0,0,0,0,0,0,0,0,0,0,0,0,0],"sum_hessian":[1.4656884E3,3.9527063E2,1.0704177E3,1.2919233E1,3.823514E2,5.229568E2,5.474609E2,1.6845166E2,2.1389973E2,1.1158697E2,4.113698E2,2.566989E2,2.9076196E2],"tree_param":{"num_deleted":"0","num_feature":"104","num_nodes":"13","size_leaf_vector":"0"}},{"base_weights":[-1.1728224E-2,-1.625905E-1,3.936766E-1,7.3672463E-3,-5.3468335E-1,6.6871303E-1,-3.0095404E-1,-9.067106E-2,6.1068034E-1,-5.9404635E-1,-7.474566E-2,-5.7831806E-1,7.533242E-1,-4.686005E-1,8.5843277E-1],"categories":[],"categories_nodes":[],"categories_segments":[],"categories_sizes":[],"default_left":[1,1,1,1,1,1,1,0,0,0,0,0,0,0,0],"id":43,"left_children":[1,3,5,7,9,11,13,-1,-1,-1,-1,-1,-1,-1,-1],"loss_changes":[8.788569E1,6.622919E1,7.4657196E1,4.263255E1,8.920906E0,2.9925621E1,2.2021805E1,0E0,0E0,0E0,0E0,0E0,0E0,0E0,0E0],"parents":[2147483647,0,0,1,1,2,2,3,3,4,4,5,5,6,6],"right_children":[2,4,6,8,10,12,14,-1,-1,-1,-1,-1,-1,-1,-1],"split_conditions":[4.8309565E-1,4.6864644E-1,4.4914374E-1,4.0101704E-1,4.7965246E-1,5.2837956E-1,5.421318E-1,-4.533553E-3,3.0534018E-2,-2.9702319E-2,-3.7372832E-3,-2.8915903E-2,3.7666213E-2,-2.3430025E-2,4.292164E-2],"split_indices":[41,35,65,15,41,54,41,0,0,0,0,0,0,0,0],"split_type":[0,0,0,0,0,0,0,0,0,0,0,0,0,0,0],"sum_hessian":[1.4349263E3,1.046204E3,3.887223E2,7.188439E2,3.273601E2,2.7849182E2,1.1023048E2,6.190913E2,9.975256E1,2.896802E2,3.7679893E1,1.7324337E1,2.6116748E2,9.682542E1,1.3405062E1],"tree_param":{"num_deleted":"0","num_feature":"104","num_nodes":"15","size_leaf_vector":"0"}},{"base_weights":[9.159563E-3,-3.38063E-1,1.7666914E-1,3.7079367E-1,-3.877489E-1,5.925525E-1,-1.3760498E-1,-5.525761E-1,5.610242E-1,-3.1413075E-1,-6.478115E-1,9.99088E-2,7.2656775E-1,-4.2326155E-1,4.6324825E-1],"categories":[],"categories_nodes":[],"categories_segments":[],"categories_sizes":[],"default_left":[1,1,1,1,1,1,1,0,0,0,0,0,0,0,0],"id":44,"left_children":[1,3,5,7,9,11,13,-1,-1,-1,-1,-1,-1,-1,-1],"loss_changes":[8.3176796E1,1.6535057E1,1.2616127E2,5.7544403E0,8.13237E0,2.7352097E1,9.4639946E1,0E0,0E0,0E0,0E0,0E0,0E0,0E0,0E0],"parents":[2147483647,0,0,1,1,2,2,3,3,4,4,5,5,6,6],"right_children":[2,4,6,8,10,12,14,-1,-1,-1,-1,-1,-1,-1,-1],"split_conditions":[3.7472805E-1,1.9099519E-1,4.2448264E-1,1.4832816E-1,3.7810272E-1,4.5294154E-1,4.992203E-1,-2.7628807E-2,2.805121E-2,-1.5706537E-2,-3.2390576E-2,4.99544E-3,3.6328387E-2,-2.1163078E-2,2.3162413E-2],"split_indices":[65,8,15,10,11,31,95,0,0,0,0,0,0,0,0],"split_type":[0,0,0,0,0,0,0,0,0,0,0,0,0,0,0],"sum_hessian":[1.4280345E3,4.643947E2,9.636398E2,2.999536E1,4.3439938E2,4.1438837E2,5.492514E2,4.7985687E0,2.519679E1,3.40281E2,9.4118355E1,8.899307E1,3.253953E2,3.7246863E2,1.7678279E2],"tree_param":{"num_deleted":"0","num_feature":"104","num_nodes":"15","size_leaf_vector":"0"}},{"base_weights":[7.2368383E-3,4.3404454E-1,-1.5160672E-1,5.1797915E-1,-1.07566E-1,-2.3002718E-1,4.162802E-1,-1.4757273E-1,6.1220443E-1,-4.560737E-1,1.0398109E0,1.3072477E-1,-3.7226886E-1,9.454714E-1,1.0069478E-1],"categories":[],"categories_nodes":[],"categories_segments":[],"categories_sizes":[],"default_left":[1,1,1,1,1,1,1,0,0,0,0,0,0,0,0],"id":45,"left_children":[1,3,5,7,9,11,13,-1,-1,-1,-1,-1,-1,-1,-1],"loss_changes":[9.769869E1,1.78238E1,4.686769E1,2.1323326E1,2.1776056E1,4.7435238E1,2.1246307E1,0E0,0E0,0E0,0E0,0E0,0E0,0E0,0E0],"parents":[2147483647,0,0,1,1,2,2,3,3,4,4,5,5,6,6],"right_children":[2,4,6,8,10,12,14,-1,-1,-1,-1,-1,-1,-1,-1],"split_conditions":[3.4467143E-1,5.6953603E-1,5.1110154E-1,4.6751785E-1,6.7394334E-1,5.947596E-1,4.9681044E-1,-7.3786364E-3,3.0610222E-2,-2.2803685E-2,5.1990546E-2,6.536239E-3,-1.8613443E-2,4.7273573E-2,5.034739E-3],"split_indices":[13,44,81,56,0,56,89,0,0,0,0,0,0,0,0],"split_type":[0,0,0,0,0,0,0,0,0,0,0,0,0,0,0],"sum_hessian":[1.4391055E3,3.8985217E2,1.0492533E3,3.3758026E2,5.2271923E1,9.224637E2,1.2678961E2,4.1795486E1,2.957848E2,4.055587E1,1.1716054E1,2.608866E2,6.615771E2,4.6619507E1,8.0170105E1],"tree_param":{"num_deleted":"0","num_feature":"104","num_nodes":"15","size_leaf_vector":"0"}},{"base_weights":[-1.4876075E-2,-1.6535817E-1,3.7720877E-1,5.364041E-4,-5.191209E-1,6.8229586E-1,-2.5887418E-1,-1.0435687E-1,7.002623E-1,2.5350234E-1,-5.561939E-1,7.416272E-1,-7.086818E-1,4.7519287E-1,-4.7990504E-1],"categories":[],"categories_nodes":[],"categories_segments":[],"categories_sizes":[],"default_left":[1,1,1,1,1,1,1,0,0,0,0,0,0,0,0],"id":46,"left_children":[1,3,5,7,9,11,13,-1,-1,-1,-1,-1,-1,-1,-1],"loss_changes":[8.395501E1,6.034282E1,7.676514E1,5.1521187E1,9.543037E0,2.256112E1,2.1102947E1,0E0,0E0,0E0,0E0,0E0,0E0,0E0,0E0],"parents":[2147483647,0,0,1,1,2,2,3,3,4,4,5,5,6,6],"right_children":[2,4,6,8,10,12,14,-1,-1,-1,-1,-1,-1,-1,-1],"split_conditions":[4.831033E-1,4.683717E-1,4.300827E-1,4.0091372E-1,4.0434444E-1,4.267824E-1,5.9304404E-1,-5.2178437E-3,3.5013117E-2,1.2675117E-2,-2.7809694E-2,3.708136E-2,-3.5434093E-2,2.3759644E-2,-2.3995252E-2],"split_indices":[41,33,73,15,67,18,54,0,0,0,0,0,0,0,0],"split_type":[0,0,0,0,0,0,0,0,0,0,0,0,0,0,0],"sum_hessian":[1.420867E3,1.0272043E3,3.936626E2,6.9996094E2,3.2724338E2,2.660049E2,1.27657684E2,6.0945123E2,9.050968E1,1.4715988E1,3.125274E2,2.5557051E2,1.04343815E1,2.9276712E1,9.8380974E1],"tree_param":{"num_deleted":"0","num_feature":"104","num_nodes":"15","size_leaf_vector":"0"}},{"base_weights":[4.4612847E-3,-3.0947995E-1,1.6276929E-1,4.8286095E-1,-3.4947428E-1,6.3065E-1,-1.585843E-1,-5.3133684E-1,7.2002643E-1,-2.710416E-1,-6.853668E-1,-5.710253E-1,6.754026E-1,-4.1680968E-1,3.4530172E-1],"categories":[],"categories_nodes":[],"categories_segments":[],"categories_sizes":[],"default_left":[1,1,1,1,1,1,1,0,0,0,0,0,0,0,0],"id":47,"left_children":[1,3,5,7,9,11,13,-1,-1,-1,-1,-1,-1,-1,-1],"loss_changes":[7.081747E1,1.5305595E1,1.425217E2,6.0043344E0,1.180896E1,2.113797E1,7.3314384E1,0E0,0E0,0E0,0E0,0E0,0E0,0E0,0E0],"parents":[2147483647,0,0,1,1,2,2,3,3,4,4,5,5,6,6],"right_children":[2,4,6,8,10,12,14,-1,-1,-1,-1,-1,-1,-1,-1],"split_conditions":[4.2916152E-1,1.9882585E-1,4.086745E-1,1.0384727E-1,4.283204E-1,3.691607E-1,4.9329567E-1,-2.6566843E-2,3.600132E-2,-1.355208E-2,-3.4268342E-2,-2.8551266E-2,3.377013E-2,-2.0840485E-2,1.7265087E-2],"split_indices":[93,14,21,0,83,73,93,0,0,0,0,0,0,0,0],"split_type":[0,0,0,0,0,0,0,0,0,0,0,0,0,0,0],"sum_hessian":[1.4229022E3,4.76667E2,9.4623517E2,2.2372116E1,4.542949E2,3.8488794E2,5.613472E2,4.00501E0,1.8367107E1,3.6976074E2,8.4534134E1,1.339705E1,3.714909E2,3.7126083E2,1.9008643E2],"tree_param":{"num_deleted":"0","num_feature":"104","num_nodes":"15","size_leaf_vector":"0"}},{"base_weights":[1.0029548E-2,3.726354E-1,-1.5522236E-1,6.5875363E-1,2.0866884E-1,-4.236709E-1,1.1265019E-1,-5.6628394E-1,7.8128254E-1,9.861442E-2,9.5139337E-1,7.447116E-2,-5.2439904E-1,-2.9966262E-1,4.631074E-1],"categories":[],"categories_nodes":[],"categories_segments":[],"categories_sizes":[],"default_left":[1,1,1,1,1,1,1,0,0,0,0,0,0,0,0],"id":48,"left_children":[1,3,5,7,9,11,13,-1,-1,-1,-1,-1,-1,-1,-1],"loss_changes":[8.5292854E1,2.0767712E1,7.036427E1,2.4739838E1,2.318053E1,2.4555779E1,7.097684E1,0E0,0E0,0E0,0E0,0E0,0E0,0E0,0E0],"parents":[2147483647,0,0,1,1,2,2,3,3,4,4,5,5,6,6],"right_children":[2,4,6,8,10,12,14,-1,-1,-1,-1,-1,-1,-1,-1],"split_conditions":[4.0904102E-1,2.280817E-1,4.4125313E-1,1.0009567E-1,4.1597393E-1,5.5304766E-1,4.3516633E-1,-2.8314197E-2,3.9064128E-2,4.930721E-3,4.756967E-2,3.723558E-3,-2.6219953E-2,-1.4983132E-2,2.315537E-2],"split_indices":[41,41,0,23,27,54,19,0,0,0,0,0,0,0,0],"split_type":[0,0,0,0,0,0,0,0,0,0,0,0,0,0,0],"sum_hessian":[1.4214491E3,4.44608E2,9.7684106E2,1.6087206E2,2.8373596E2,4.8760553E2,4.8923557E2,1.4298164E1,1.465739E2,2.4810532E2,3.563064E1,8.205762E1,4.055479E2,2.2484749E2,2.6438806E2],"tree_param":{"num_deleted":"0","num_feature":"104","num_nodes":"15","size_leaf_vector":"0"}},{"base_weights":[-1.2873751E-2,-1.6951998E-1,3.8007367E-1,-1.0107463E-2,-5.454396E-1,6.390665E-1,-3.0654266E-1,-1.0047601E-1,6.473126E-1,6.7649996E-1,-5.559621E-1,-2.779594E-1,7.3072E-1,5.595713E-1,-4.8974693E-1],"categories":[],"categories_nodes":[],"categories_segments":[],"categories_sizes":[],"default_left":[1,1,1,1,1,1,1,0,0,0,0,0,0,0,0],"id":49,"left_children":[1,3,5,7,9,11,13,-1,-1,-1,-1,-1,-1,-1,-1],"loss_changes":[8.6141884E1,5.995226E1,7.112935E1,4.18663E1,4.206703E0,2.4573814E1,1.771677E1,0E0,0E0,0E0,0E0,0E0,0E0,0E0,0E0],"parents":[2147483647,0,0,1,1,2,2,3,3,4,4,5,5,6,6],"right_children":[2,4,6,8,10,12,14,-1,-1,-1,-1,-1,-1,-1,-1],"split_conditions":[4.822948E-1,4.6864644E-1,4.492572E-1,3.9097416E-1,3.7877184E-1,5.816071E-1,5.9304464E-1,-5.023801E-3,3.236563E-2,3.3825E-2,-2.7798105E-2,-1.389797E-2,3.6536E-2,2.7978567E-2,-2.4487346E-2],"split_indices":[41,35,65,17,59,70,54,0,0,0,0,0,0,0,0],"split_type":[0,0,0,0,0,0,0,0,0,0,0,0,0,0,0],"sum_hessian":[1.3974117E3,9.995253E2,3.978864E2,7.026053E2,2.9691998E2,2.889596E2,1.089268E2,6.1844183E2,8.416347E1,1.9946685E0,2.9492532E2,2.6071556E1,2.6288803E2,1.8659246E1,9.0267555E1],"tree_param":{"num_deleted":"0","num_feature":"104","num_nodes":"15","size_leaf_vector":"0"}},{"base_weights":[7.5289574E-3,-3.27218E-1,1.6910906E-1,3.5128716E-1,-3.7993714E-1,5.368962E-1,-1.683195E-1,-5.368743E-1,4.934231E-1,-3.0859822E-1,-6.3506055E-1,3.3026108E-1,7.860966E-1,-4.9159577E-1,4.1013664E-1],"categories":[],"categories_nodes":[],"categories_segments":[],"categories_sizes":[],"default_left":[1,1,1,1,1,1,1,0,0,0,0,0,0,0,0],"id":50,"left_children":[1,3,5,7,9,11,13,-1,-1,-1,-1,-1,-1,-1,-1],"loss_changes":[7.4887474E1,1.6256748E1,1.1597275E2,4.4329705E0,7.42498E0,2.2759247E1,9.141033E1,0E0,0E0,0E0,0E0,0E0,0E0,0E0,0E0],"parents":[2147483647,0,0,1,1,2,2,3,3,4,4,5,5,6,6],"right_children":[2,4,6,8,10,12,14,-1,-1,-1,-1,-1,-1,-1,-1],"split_conditions":[3.7428766E-1,2.1458167E-1,4.1947192E-1,2.8865895E-1,3.7931192E-1,4.661905E-1,4.5020086E-1,-2.6843715E-2,2.4671156E-2,-1.5429911E-2,-3.175303E-2,1.6513055E-2,3.930483E-2,-2.457979E-2,2.0506833E-2],"split_indices":[65,20,23,54,11,93,65,0,0,0,0,0,0,0,0],"split_type":[0,0,0,0,0,0,0,0,0,0,0,0,0,0,0],"sum_hessian":[1.3825143E3,4.497461E2,9.327681E2,3.2017075E1,4.1772903E2,4.4602402E2,4.8674414E2,4.0338244E0,2.798325E1,3.281732E2,8.9555855E1,2.4510774E2,2.0091628E2,3.1233987E2,1.7440425E2],"tree_param":{"num_deleted":"0","num_feature":"104","num_nodes":"15","size_leaf_vector":"0"}},{"base_weights":[8.503144E-3,6.065372E-1,-8.4081456E-2,-6.573431E-1,6.962673E-1,2.1307093E-1,-2.0160471E-1,-1.6981326E-1,7.27791E-1,6.399111E-2,8.7095314E-1,-4.9273565E-1,1.7918812E-2],"categories":[],"categories_nodes":[],"categories_segments":[],"categories_sizes":[],"default_left":[1,1,1,0,1,1,1,0,0,0,0,0,0],"id":51,"left_children":[1,3,5,-1,7,9,11,-1,-1,-1,-1,-1,-1],"loss_changes":[7.718282E1,2.1650871E1,4.220053E1,0E0,4.9007263E0,3.354677E1,5.5327362E1,0E0,0E0,0E0,0E0,0E0,0E0],"parents":[2147483647,0,0,1,1,2,2,4,4,5,5,6,6],"right_children":[2,4,6,-1,8,10,12,-1,-1,-1,-1,-1,-1],"split_conditions":[2.5675547E-1,1.23646714E-1,5.9976995E-1,-3.2867156E-2,4.8722005E-1,5.5940366E-1,5.5112636E-1,-8.490663E-3,3.6389552E-2,3.1995554E-3,4.3547656E-2,-2.4636783E-2,8.9594064E-4],"split_indices":[51,11,70,0,52,80,62,0,0,0,0,0,0],"split_type":[0,0,0,0,0,0,0,0,0,0,0,0,0],"sum_hessian":[1.3920571E3,1.8587552E2,1.2061816E3,1.1902247E1,1.7397327E2,3.416136E2,8.6456805E2,5.9558506E0,1.6801741E2,2.7939777E2,6.2215836E1,3.711312E2,4.9343686E2],"tree_param":{"num_deleted":"0","num_feature":"104","num_nodes":"13","size_leaf_vector":"0"}},{"base_weights":[-1.0628931E-2,-1.5599152E-1,3.481002E-1,6.0640625E-4,-5.3516024E-1,6.5253615E-1,-2.4705526E-1,-1.1587521E-1,4.6538568E-1,-5.822735E-1,-1.8280421E-1,-5.5326515E-1,7.302631E-1,-3.9125574E-1,7.29022E-1],"categories":[],"categories_nodes":[],"categories_segments":[],"categories_sizes":[],"default_left":[1,1,1,1,1,1,1,0,0,0,0,0,0,0,0],"id":52,"left_children":[1,3,5,7,9,11,13,-1,-1,-1,-1,-1,-1,-1,-1],"loss_changes":[7.199087E1,5.833293E1,7.22948E1,3.7748367E1,4.6603928E0,2.5115372E1,1.935058E1,0E0,0E0,0E0,0E0,0E0,0E0,0E0,0E0],"parents":[2147483647,0,0,1,1,2,2,3,3,4,4,5,5,6,6],"right_children":[2,4,6,8,10,12,14,-1,-1,-1,-1,-1,-1,-1,-1],"split_conditions":[4.8186874E-1,4.6864644E-1,4.2856863E-1,3.9484847E-1,4.7837743E-1,5.047345E-1,5.346093E-1,-5.7937605E-3,2.3269285E-2,-2.9113675E-2,-9.140211E-3,-2.7663259E-2,3.6513157E-2,-1.9562786E-2,3.64511E-2],"split_indices":[41,35,73,15,41,54,41,0,0,0,0,0,0,0,0],"split_type":[0,0,0,0,0,0,0,0,0,0,0,0,0,0,0],"sum_hessian":[1.3785277E3,9.814102E2,3.9711743E2,6.952628E2,2.8614743E2,2.6266284E2,1.344546E2,5.565361E2,1.3872675E2,2.5182376E2,3.432367E1,1.5535651E1,2.4712718E2,1.1766984E2,1.6784763E1],"tree_param":{"num_deleted":"0","num_feature":"104","num_nodes":"15","size_leaf_vector":"0"}},{"base_weights":[6.72517E-3,-3.383428E-1,1.4828567E-1,2.6077121E-1,-4.0291578E-1,5.1295495E-1,-1.4216377E-1,-5.22804E-1,3.597378E-1,-3.326513E-1,-6.31163E-1,1.1863288E-1,6.7668283E-1,-4.5772868E-1,3.5586768E-1],"categories":[],"categories_nodes":[],"categories_segments":[],"categories_sizes":[],"default_left":[1,1,1,1,1,1,1,0,0,0,0,0,0,0,0],"id":53,"left_children":[1,3,5,7,9,11,13,-1,-1,-1,-1,-1,-1,-1,-1],"loss_changes":[6.8036026E1,1.57799225E1,1.0467842E2,3.2921844E0,5.6621933E0,2.8202644E1,8.668509E1,0E0,0E0,0E0,0E0,0E0,0E0,0E0,0E0],"parents":[2147483647,0,0,1,1,2,2,3,3,4,4,5,5,6,6],"right_children":[2,4,6,8,10,12,14,-1,-1,-1,-1,-1,-1,-1,-1],"split_conditions":[3.6554098E-1,3.939197E-1,4.107352E-1,1.4832816E-1,3.4694284E-1,4.4512498E-1,4.917379E-1,-2.6140202E-2,1.7986892E-2,-1.6632564E-2,-3.1558152E-2,5.9316442E-3,3.383414E-2,-2.2886435E-2,1.7793385E-2],"split_indices":[65,78,17,10,23,93,93,0,0,0,0,0,0,0,0],"split_type":[0,0,0,0,0,0,0,0,0,0,0,0,0,0,0],"sum_hessian":[1.3907839E3,4.0417548E2,9.866084E2,3.9028374E1,3.6514713E2,4.3707706E2,5.495314E2,3.8963237E0,3.513205E1,2.8107678E2,8.407034E1,1.2874127E2,3.083358E2,3.3643735E2,2.1309402E2],"tree_param":{"num_deleted":"0","num_feature":"104","num_nodes":"15","size_leaf_vector":"0"}},{"base_weights":[1.6128171E-2,5.51395E-1,-8.9645796E-2,-6.4300334E-1,6.180638E-1,-1.4490218E-1,4.314502E-1,6.9548965E-1,2.6219908E-2,2.060863E-2,-4.8293585E-1,8.5602033E-1,1.7295045E-1],"categories":[],"categories_nodes":[],"categories_segments":[],"categories_sizes":[],"default_left":[1,1,1,0,1,1,1,0,0,0,0,0,0],"id":54,"left_children":[1,3,5,-1,7,9,11,-1,-1,-1,-1,-1,-1],"loss_changes":[7.880861E1,1.8686066E1,3.353273E1,0E0,9.973267E0,5.8851418E1,1.2110552E1,0E0,0E0,0E0,0E0,0E0,0E0],"parents":[2147483647,0,0,1,1,2,2,4,4,5,5,6,6],"right_children":[2,4,6,-1,8,10,12,-1,-1,-1,-1,-1,-1],"split_conditions":[2.838596E-1,1.125174E-1,5.098629E-1,-3.2150168E-2,5.4697776E-1,4.721368E-1,4.971438E-1,3.4774482E-2,1.3109954E-3,1.0304315E-3,-2.4146793E-2,4.280102E-2,8.647523E-3],"split_indices":[41,15,83,0,4,93,89,0,0,0,0,0,0],"split_type":[0,0,0,0,0,0,0,0,0,0,0,0,0],"sum_hessian":[1.39008E3,2.286729E2,1.1614071E3,1.1632225E1,2.1704066E2,1.0507128E3,1.1069439E2,1.9177702E2,2.5263649E1,7.059827E2,3.4473E2,4.1016228E1,6.967816E1],"tree_param":{"num_deleted":"0","num_feature":"104","num_nodes":"13","size_leaf_vector":"0"}},{"base_weights":[1.56332E-3,-1.3728088E-1,3.5646668E-1,1.9159338E-2,-5.023863E-1,6.3456494E-1,-1.9635081E-1,-7.842644E-2,5.761547E-1,-3.076107E-1,-6.320695E-1,-5.845544E-1,7.0172334E-1,-5.714672E-1,1.692025E-1],"categories":[],"categories_nodes":[],"categories_segments":[],"categories_sizes":[],"default_left":[1,1,1,1,1,1,1,0,0,0,0,0,0,0,0],"id":55,"left_children":[1,3,5,7,9,11,13,-1,-1,-1,-1,-1,-1,-1,-1],"loss_changes":[6.701779E1,5.584735E1,5.8921394E1,3.729601E1,7.213379E0,2.1262222E1,1.775362E1,0E0,0E0,0E0,0E0,0E0,0E0,0E0,0E0],"parents":[2147483647,0,0,1,1,2,2,3,3,4,4,5,5,6,6],"right_children":[2,4,6,8,10,12,14,-1,-1,-1,-1,-1,-1,-1,-1],"split_conditions":[4.831033E-1,4.6864644E-1,4.2897165E-1,4.0033397E-1,4.875973E-1,5.047345E-1,5.07042E-1,-3.921322E-3,2.8807735E-2,-1.5380534E-2,-3.1603478E-2,-2.9227719E-2,3.5086166E-2,-2.8573362E-2,8.460126E-3],"split_indices":[41,35,73,15,29,54,83,0,0,0,0,0,0,0,0],"split_type":[0,0,0,0,0,0,0,0,0,0,0,0,0,0,0],"sum_hessian":[1.3580487E3,9.7659955E2,3.814491E2,6.843269E2,2.922726E2,2.5368394E2,1.2776516E2,5.830377E2,1.01289215E2,1.1816645E2,1.7410617E2,1.2842964E1,2.4084099E2,6.2779755E1,6.4985405E1],"tree_param":{"num_deleted":"0","num_feature":"104","num_nodes":"15","size_leaf_vector":"0"}},{"base_weights":[-9.185402E-3,-3.4622192E-1,1.2874997E-1,4.201638E-1,-3.9954203E-1,4.6150303E-1,-1.4723793E-1,-5.0524396E-1,5.8391947E-1,-3.2862487E-1,-6.261611E-1,7.844103E-2,6.513691E-1,-4.4004712E-1,3.3793706E-1],"categories":[],"categories_nodes":[],"categories_segments":[],"categories_sizes":[],"default_left":[1,1,1,1,1,1,1,0,0,0,0,0,0,0,0],"id":56,"left_children":[1,3,5,7,9,11,13,-1,-1,-1,-1,-1,-1,-1,-1],"loss_changes":[6.300048E1,1.6249474E1,8.838292E1,4.2481856E0,5.715744E0,3.1676498E1,7.49348E1,0E0,0E0,0E0,0E0,0E0,0E0,0E0,0E0],"parents":[2147483647,0,0,1,1,2,2,3,3,4,4,5,5,6,6],"right_children":[2,4,6,8,10,12,14,-1,-1,-1,-1,-1,-1,-1,-1],"split_conditions":[3.6554098E-1,3.4208843E-1,4.1583952E-1,1.4832816E-1,3.4694284E-1,4.002232E-1,4.9586627E-1,-2.5262197E-2,2.9195974E-2,-1.6431244E-2,-3.1308055E-2,3.9220518E-3,3.2568455E-2,-2.2002356E-2,1.6896853E-2],"split_indices":[65,58,23,10,23,59,95,0,0,0,0,0,0,0,0],"split_type":[0,0,0,0,0,0,0,0,0,0,0,0,0,0,0],"sum_hessian":[1.3532032E3,3.9254178E2,9.606615E2,2.5086473E1,3.6745532E2,4.352351E2,5.254264E2,3.4582164E0,2.1628258E1,2.8173923E2,8.571608E1,1.4470348E2,2.9053162E2,3.2773016E2,1.9769626E2],"tree_param":{"num_deleted":"0","num_feature":"104","num_nodes":"15","size_leaf_vector":"0"}},{"base_weights":[3.9769458E-3,5.950603E-1,-8.51375E-2,-6.5837014E-1,6.8543184E-1,-1.4130628E-1,4.0122703E-1,-3.8609514E-1,7.197376E-1,5.9858267E-3,-4.559787E-1,-2.6855242E-1,6.3060117E-1],"categories":[],"categories_nodes":[],"categories_segments":[],"categories_sizes":[],"default_left":[1,1,1,0,1,1,1,0,0,0,0,0,0],"id":57,"left_children":[1,3,5,-1,7,9,11,-1,-1,-1,-1,-1,-1],"loss_changes":[7.371659E1,2.1220078E1,3.3280766E1,0E0,6.582466E0,5.0569366E1,1.9553118E1,0E0,0E0,0E0,0E0,0E0,0E0],"parents":[2147483647,0,0,1,1,2,2,4,4,5,5,6,6],"right_children":[2,4,6,-1,8,10,12,-1,-1,-1,-1,-1,-1],"split_conditions":[2.5428545E-1,8.502152E-2,5.1105666E-1,-3.291851E-2,4.565996E-1,4.7194767E-1,6.117264E-1,-1.9304758E-2,3.598688E-2,2.9929134E-4,-2.2798935E-2,-1.3427622E-2,3.153006E-2],"split_indices":[3,75,79,0,64,93,52,0,0,0,0,0,0],"split_type":[0,0,0,0,0,0,0,0,0,0,0,0,0],"sum_hessian":[1.3975238E3,1.8234935E2,1.2151746E3,1.1840437E1,1.7050891E2,1.0900028E3,1.251717E2,4.971493E0,1.6553741E2,7.431361E2,3.4686673E2,3.188774E1,9.328396E1],"tree_param":{"num_deleted":"0","num_feature":"104","num_nodes":"13","size_leaf_vector":"0"}},{"base_weights":[3.8799664E-4,-1.3612784E-1,3.469023E-1,4.0973853E-2,-4.5406035E-1,6.299607E-1,-2.1040523E-1,-1.0451277E-1,5.6360775E-1,9.966548E-1,-5.184283E-1,-5.1766104E-1,6.9654644E-1,-3.8007438E-1,7.569289E-1],"categories":[],"categories_nodes":[],"categories_segments":[],"categories_sizes":[],"default_left":[1,1,1,1,1,1,1,0,0,0,0,0,0,0,0],"id":58,"left_children":[1,3,5,7,9,11,13,-1,-1,-1,-1,-1,-1,-1,-1],"loss_changes":[6.425899E1,5.4888626E1,6.0695786E1,4.7716698E1,3.3079376E1,1.9835289E1,2.163462E1,0E0,0E0,0E0,0E0,0E0,0E0,0E0,0E0],"parents":[2147483647,0,0,1,1,2,2,3,3,4,4,5,5,6,6],"right_children":[2,4,6,8,10,12,14,-1,-1,-1,-1,-1,-1,-1,-1],"split_conditions":[4.831033E-1,4.0249726E-1,4.2843726E-1,3.8870752E-1,4.476485E-1,5.164326E-1,5.340295E-1,-5.225639E-3,2.8180389E-2,4.9832743E-2,-2.5921417E-2,-2.5883052E-2,3.482732E-2,-1.900372E-2,3.7846446E-2],"split_indices":[41,59,73,7,27,56,41,0,0,0,0,0,0,0,0],"split_type":[0,0,0,0,0,0,0,0,0,0,0,0,0,0,0],"sum_hessian":[1.356408E3,9.734903E2,3.8291766E2,6.257773E2,3.4771298E2,2.5385397E2,1.2906367E2,4.9013693E2,1.3564035E2,1.4157174E1,3.3355582E2,1.3549551E1,2.4030443E2,1.1032067E2,1.8743011E1],"tree_param":{"num_deleted":"0","num_feature":"104","num_nodes":"15","size_leaf_vector":"0"}},{"base_weights":[1.7009677E-3,-3.4130958E-1,1.3721524E-1,2.0428646E-1,-4.0568307E-1,4.5358026E-1,-1.7597128E-1,-3.7386233E-1,3.975494E-1,-5.2780783E-1,-2.6158357E-1,1.4268689E-1,6.24519E-1,-4.6422142E-1,3.2031E-1],"categories":[],"categories_nodes":[],"categories_segments":[],"categories_sizes":[],"default_left":[1,1,1,1,1,1,1,0,0,0,0,0,0,0,0],"id":59,"left_children":[1,3,5,7,9,11,13,-1,-1,-1,-1,-1,-1,-1,-1],"loss_changes":[6.3752434E1,1.3724453E1,9.7487854E1,4.8030267E0,5.9816933E0,2.5916977E1,7.0925476E1,0E0,0E0,0E0,0E0,0E0,0E0,0E0,0E0],"parents":[2147483647,0,0,1,1,2,2,3,3,4,4,5,5,6,6],"right_children":[2,4,6,8,10,12,14,-1,-1,-1,-1,-1,-1,-1,-1],"split_conditions":[3.64806E-1,4.006865E-1,4.185472E-1,3.126554E-1,4.261405E-1,4.026515E-1,4.492572E-1,-1.8693117E-2,1.987747E-2,-2.6390392E-2,-1.30791785E-2,7.1343444E-3,3.122595E-2,-2.3211071E-2,1.60155E-2],"split_indices":[65,60,23,29,18,59,65,0,0,0,0,0,0,0,0],"split_type":[0,0,0,0,0,0,0,0,0,0,0,0,0,0,0],"sum_hessian":[1.369519E3,3.874064E2,9.821127E2,4.0655792E1,3.467506E2,4.8835406E2,4.9375858E2,9.951441E0,3.070435E1,1.8624483E2,1.6050578E2,1.739034E2,3.1445065E2,3.123842E2,1.813744E2],"tree_param":{"num_deleted":"0","num_feature":"104","num_nodes":"15","size_leaf_vector":"0"}},{"base_weights":[2.7948066E-3,3.5541785E-1,-1.3045295E-1,4.4421145E-1,-1.7345248E-1,-2.1420863E-1,4.178686E-1,-1.995758E-1,5.3274995E-1,-4.5300126E-1,9.454193E-1,-8.771531E-2,-5.3767735E-1,-2.0237349E-1,5.94451E-1],"categories":[],"categories_nodes":[],"categories_segments":[],"categories_sizes":[],"default_left":[1,1,1,1,1,1,1,0,0,0,0,0,0,0,0],"id":60,"left_children":[1,3,5,7,9,11,13,-1,-1,-1,-1,-1,-1,-1,-1],"loss_changes":[6.435906E1,1.7717377E1,4.5744194E1,1.8455902E1,1.7543747E1,3.5265747E1,1.4584835E1,0E0,0E0,0E0,0E0,0E0,0E0,0E0,0E0],"parents":[2147483647,0,0,1,1,2,2,3,3,4,4,5,5,6,6],"right_children":[2,4,6,8,10,12,14,-1,-1,-1,-1,-1,-1,-1,-1],"split_conditions":[3.4275326E-1,5.6953603E-1,5.1115465E-1,4.455852E-1,6.750951E-1,4.8088664E-1,6.117264E-1,-9.97879E-3,2.6637498E-2,-2.2650063E-2,4.7270965E-2,-4.3857656E-3,-2.6883869E-2,-1.01186745E-2,2.972255E-2],"split_indices":[13,44,81,96,0,91,52,0,0,0,0,0,0,0,0],"split_type":[0,0,0,0,0,0,0,0,0,0,0,0,0,0,0],"sum_hessian":[1.3677562E3,3.7464337E2,9.9311285E2,3.209228E2,5.3720608E1,8.620454E2,1.3106743E2,3.8648075E1,2.822747E2,4.3457844E1,1.0262763E1,6.2062103E2,2.4142441E2,2.9013178E1,1.02054245E2],"tree_param":{"num_deleted":"0","num_feature":"104","num_nodes":"15","size_leaf_vector":"0"}},{"base_weights":[7.736204E-3,-1.262531E-1,3.4473497E-1,-1.8979978E-2,-6.232796E-1,5.4740703E-1,-3.2524207E-1,-5.4988217E-2,1.1620615E0,-2.7165022E-1,6.4151186E-1,-4.944798E-1,8.510295E-1],"categories":[],"categories_nodes":[],"categories_segments":[],"categories_sizes":[],"default_left":[1,1,1,1,0,1,1,0,0,0,0,0,0],"id":61,"left_children":[1,3,5,7,-1,9,11,-1,-1,-1,-1,-1,-1],"loss_changes":[5.972988E1,5.045446E1,5.1275597E1,3.3215176E1,0E0,2.247158E1,1.7943932E1,0E0,0E0,0E0,0E0,0E0,0E0],"parents":[2147483647,0,0,1,1,2,2,3,3,5,5,6,6],"right_children":[2,4,6,8,-1,10,12,-1,-1,-1,-1,-1,-1],"split_conditions":[4.8329413E-1,4.8403138E-1,4.5255035E-1,4.7433218E-1,-3.116398E-2,5.816071E-1,5.421419E-1,-2.749411E-3,5.8103073E-2,-1.3582512E-2,3.2075595E-2,-2.472399E-2,4.2551477E-2],"split_indices":[41,33,65,41,0,70,41,0,0,0,0,0,0],"split_type":[0,0,0,0,0,0,0,0,0,0,0,0,0],"sum_hessian":[1.3208331E3,9.4552264E2,3.7531052E2,7.785307E2,1.6699194E2,2.882854E2,8.702511E1,7.5642194E2,2.2108767E1,2.9514477E1,2.587709E2,7.658583E1,1.0439274E1],"tree_param":{"num_deleted":"0","num_feature":"104","num_nodes":"13","size_leaf_vector":"0"}},{"base_weights":[-2.7758118E-3,-3.235931E-1,1.2813789E-1,2.4016815E-1,-3.8987535E-1,4.6151018E-1,-1.4420824E-1,-3.6727682E-1,3.961123E-1,-3.1600222E-1,-6.1753434E-1,6.892601E-2,6.278284E-1,-4.1358215E-1,3.3707616E-1],"categories":[],"categories_nodes":[],"categories_segments":[],"categories_sizes":[],"default_left":[1,1,1,1,1,1,1,0,0,0,0,0,0,0,0],"id":62,"left_children":[1,3,5,7,9,11,13,-1,-1,-1,-1,-1,-1,-1,-1],"loss_changes":[5.596885E1,1.45247E1,8.5995415E1,4.0527525E0,5.6229515E0,2.775734E1,6.776939E1,0E0,0E0,0E0,0E0,0E0,0E0,0E0,0E0],"parents":[2147483647,0,0,1,1,2,2,3,3,4,4,5,5,6,6],"right_children":[2,4,6,8,10,12,14,-1,-1,-1,-1,-1,-1,-1,-1],"split_conditions":[3.648177E-1,4.006865E-1,4.1089824E-1,3.072242E-1,3.570935E-1,4.4648057E-1,4.9444565E-1,-1.836384E-2,1.9805616E-2,-1.5800111E-2,-3.0876717E-2,3.4463003E-3,3.1391423E-2,-2.0679107E-2,1.6853807E-2],"split_indices":[65,60,17,1,15,93,93,0,0,0,0,0,0,0,0],"split_type":[0,0,0,0,0,0,0,0,0,0,0,0,0,0,0],"sum_hessian":[1.3306241E3,3.851944E2,9.4542975E2,4.0247475E1,3.449469E2,4.2477652E2,5.206532E2,7.944868E0,3.230261E1,2.6224045E2,8.270645E1,1.2682595E2,2.9795056E2,3.3390686E2,1.8674634E2],"tree_param":{"num_deleted":"0","num_feature":"104","num_nodes":"15","size_leaf_vector":"0"}},{"base_weights":[-2.3681025E-3,5.3167593E-1,-8.586492E-2,-6.478623E-1,6.1538965E-1,-1.4203368E-1,3.835164E-1,-3.8346216E-1,6.685834E-1,7.208649E-3,-4.832538E-1,-2.7524677E-1,5.729772E-1],"categories":[],"categories_nodes":[],"categories_segments":[],"categories_sizes":[],"default_left":[1,1,1,0,1,1,1,0,0,0,0,0,0],"id":63,"left_children":[1,3,5,-1,7,9,11,-1,-1,-1,-1,-1,-1],"loss_changes":[6.0854095E1,1.8619057E1,3.116919E1,0E0,9.438072E0,5.371707E1,1.5933975E1,0E0,0E0,0E0,0E0,0E0,0E0],"parents":[2147483647,0,0,1,1,2,2,4,4,5,5,6,6],"right_children":[2,4,6,-1,8,10,12,-1,-1,-1,-1,-1,-1],"split_conditions":[2.5415382E-1,1.1298441E-1,5.1108146E-1,-3.2393117E-2,5.0260806E-1,4.7273812E-1,5.6544614E-1,-1.9173108E-2,3.3429172E-2,3.6043246E-4,-2.4162691E-2,-1.3762339E-2,2.8648859E-2],"split_indices":[43,15,81,0,52,93,86,0,0,0,0,0,0],"split_type":[0,0,0,0,0,0,0,0,0,0,0,0,0],"sum_hessian":[1.3626938E3,1.8352214E2,1.1791718E3,1.1715139E1,1.71807E2,1.0537693E3,1.2540245E2,8.373013E0,1.6343399E2,7.3379987E2,3.199694E2,2.7908976E1,9.749348E1],"tree_param":{"num_deleted":"0","num_feature":"104","num_nodes":"13","size_leaf_vector":"0"}},{"base_weights":[-8.781789E-3,-1.369474E-1,3.3275962E-1,1.711003E-2,-4.9077174E-1,7.1849895E-1,-2.6112996E-2,-9.006447E-2,6.522459E-1,-5.5776083E-1,-7.9877004E-2,6.8044037E-1,1.620719E0,-6.705409E-1,4.4088385E-1],"categories":[],"categories_nodes":[],"categories_segments":[],"categories_sizes":[],"default_left":[1,1,1,1,1,1,1,0,0,0,0,0,0,0,0],"id":64,"left_children":[1,3,5,7,9,11,13,-1,-1,-1,-1,-1,-1,-1,-1],"loss_changes":[5.793155E1,5.246077E1,5.000932E1,4.575741E1,7.990692E0,4.8746414E0,5.6885708E1,0E0,0E0,0E0,0E0,0E0,0E0,0E0,0E0],"parents":[2147483647,0,0,1,1,2,2,3,3,4,4,5,5,6,6],"right_children":[2,4,6,8,10,12,14,-1,-1,-1,-1,-1,-1,-1,-1],"split_conditions":[4.831033E-1,4.708428E-1,5.01573E-1,3.9992023E-1,4.8078763E-1,4.530943E-1,5.028603E-1,-4.5032236E-3,3.2612294E-2,-2.7888043E-2,-3.99385E-3,3.402202E-2,8.103595E-2,-3.3527046E-2,2.2044193E-2],"split_indices":[41,31,31,15,43,67,41,0,0,0,0,0,0,0,0],"split_type":[0,0,0,0,0,0,0,0,0,0,0,0,0,0,0],"sum_hessian":[1.321387E3,9.612651E2,3.6012186E2,6.703444E2,2.9092065E2,1.7308109E2,1.8704077E2,5.742946E2,9.60498E1,2.498325E2,4.1088158E1,1.6775868E2,5.322413E0,7.840738E1,1.08633385E2],"tree_param":{"num_deleted":"0","num_feature":"104","num_nodes":"15","size_leaf_vector":"0"}},{"base_weights":[1.992007E-3,-3.120737E-1,1.2608072E-1,3.2078376E-1,-3.623744E-1,4.6657756E-1,-1.17071204E-1,-3.8917577E-1,5.874238E-1,-2.9397282E-1,-6.309851E-1,1.2813722E-1,6.461083E-1,-3.4159943E-1,3.0276382E-1],"categories":[],"categories_nodes":[],"categories_segments":[],"categories_sizes":[],"default_left":[1,1,1,1,1,1,1,0,0,0,0,0,0,0,0],"id":65,"left_children":[1,3,5,7,9,11,13,-1,-1,-1,-1,-1,-1,-1,-1],"loss_changes":[5.1617382E1,1.2056953E1,7.865453E1,5.557341E0,6.207596E0,2.3960762E1,5.238742E1,0E0,0E0,0E0,0E0,0E0,0E0,0E0,0E0],"parents":[2147483647,0,0,1,1,2,2,3,3,4,4,5,5,6,6],"right_children":[2,4,6,8,10,12,14,-1,-1,-1,-1,-1,-1,-1,-1],"split_conditions":[3.648177E-1,3.4208843E-1,4.1627932E-1,2.9740638E-1,4.1316158E-1,3.9754412E-1,4.9586627E-1,-1.945879E-2,2.937119E-2,-1.4698641E-2,-3.1549256E-2,6.406861E-3,3.2305416E-2,-1.7079972E-2,1.5138191E-2],"split_indices":[65,58,13,52,81,65,95,0,0,0,0,0,0,0,0],"split_type":[0,0,0,0,0,0,0,0,0,0,0,0,0,0,0],"sum_hessian":[1.3224635E3,3.741028E2,9.4836066E2,2.7149117E1,3.469537E2,3.947105E2,5.5365015E2,7.2870245E0,1.9862093E1,2.782037E2,6.8750015E1,1.3740215E2,2.5730835E2,3.608523E2,1.9279787E2],"tree_param":{"num_deleted":"0","num_feature":"104","num_nodes":"15","size_leaf_vector":"0"}},{"base_weights":[4.078663E-3,5.195592E-1,-7.628289E-2,-6.557945E-1,6.171842E-1,-1.3337524E-1,3.997963E-1,2.1141124E-1,6.883783E-1,5.7785492E-3,-4.7054905E-1,-2.2383617E-1,5.6771445E-1],"categories":[],"categories_nodes":[],"categories_segments":[],"categories_sizes":[],"default_left":[1,1,1,0,1,1,1,0,0,0,0,0,0],"id":66,"left_children":[1,3,5,-1,7,9,11,-1,-1,-1,-1,-1,-1],"loss_changes":[5.626915E1,2.1425785E1,3.1995499E1,0E0,4.7558594E0,4.9272266E1,1.3331118E1,0E0,0E0,0E0,0E0,0E0,0E0],"parents":[2147483647,0,0,1,1,2,2,4,4,5,5,6,6],"right_children":[2,4,6,-1,8,10,12,-1,-1,-1,-1,-1,-1],"split_conditions":[2.5675547E-1,8.502152E-2,5.1162446E-1,-3.2789726E-2,5.4755366E-1,4.7252566E-1,6.117264E-1,1.0570562E-2,3.4418914E-2,2.8892746E-4,-2.3527453E-2,-1.1191809E-2,2.8385723E-2],"split_indices":[51,75,81,0,66,93,52,0,0,0,0,0,0],"split_type":[0,0,0,0,0,0,0,0,0,0,0,0,0],"sum_hessian":[1.3563872E3,1.821996E2,1.1741876E3,1.35344515E1,1.6866515E2,1.0490977E3,1.2509002E2,2.5768162E1,1.4289697E2,7.4331116E2,3.0578647E2,2.6465725E1,9.86243E1],"tree_param":{"num_deleted":"0","num_feature":"104","num_nodes":"13","size_leaf_vector":"0"}},{"base_weights":[-6.835157E-3,-1.3146101E-1,3.069604E-1,1.8162716E-2,-5.0986296E-1,5.8116686E-1,-2.0169254E-1,-7.745575E-2,5.4861873E-1,-5.529414E-1,-4.121445E-2,-5.218075E-1,6.505447E-1,-3.597456E-1,7.0792663E-1],"categories":[],"categories_nodes":[],"categories_segments":[],"categories_sizes":[],"default_left":[1,1,1,1,1,1,1,0,0,0,0,0,0,0,0],"id":67,"left_children":[1,3,5,7,9,11,13,-1,-1,-1,-1,-1,-1,-1,-1],"loss_changes":[5.139251E1,5.3261276E1,5.2220863E1,3.4279312E1,5.3585587E0,1.893264E1,1.9172981E1,0E0,0E0,0E0,0E0,0E0,0E0,0E0,0E0],"parents":[2147483647,0,0,1,1,2,2,3,3,4,4,5,5,6,6],"right_children":[2,4,6,8,10,12,14,-1,-1,-1,-1,-1,-1,-1,-1],"split_conditions":[4.8227552E-1,4.6867362E-1,4.28383E-1,4.0060058E-1,4.7969162E-1,5.047345E-1,5.340295E-1,-3.8727876E-3,2.7430937E-2,-2.7647069E-2,-2.0607226E-3,-2.6090374E-2,3.2527234E-2,-1.798728E-2,3.5396334E-2],"split_indices":[41,35,73,15,41,54,41,0,0,0,0,0,0,0,0],"split_type":[0,0,0,0,0,0,0,0,0,0,0,0,0,0,0],"sum_hessian":[1.312118E3,9.395507E2,3.7256735E2,6.739976E2,2.6555307E2,2.4197827E2,1.3058908E2,5.7178357E2,1.0221407E2,2.4303343E2,2.2519642E1,1.3933954E1,2.2804433E2,1.11772316E2,1.8816755E1],"tree_param":{"num_deleted":"0","num_feature":"104","num_nodes":"15","size_leaf_vector":"0"}},{"base_weights":[-1.1450801E-2,-3.0472982E-1,1.1884439E-1,2.1616858E-1,-3.5651448E-1,4.3432406E-1,-1.74462E-1,1.24708764E-1,1.2086143E0,-2.8454894E-1,-6.487827E-1,2.5045046E-1,7.050753E-1,-5.0546557E-1,2.563489E-1],"categories":[],"categories_nodes":[],"categories_segments":[],"categories_sizes":[],"default_left":[1,1,1,1,1,1,1,0,0,0,0,0,0,0,0],"id":68,"left_children":[1,3,5,7,9,11,13,-1,-1,-1,-1,-1,-1,-1,-1],"loss_changes":[4.975395E1,1.088044E1,8.350017E1,3.1930056E0,7.48547E0,2.1462212E1,6.6854614E1,0E0,0E0,0E0,0E0,0E0,0E0,0E0,0E0],"parents":[2147483647,0,0,1,1,2,2,3,3,4,4,5,5,6,6],"right_children":[2,4,6,8,10,12,14,-1,-1,-1,-1,-1,-1,-1,-1],"split_conditions":[3.7428766E-1,3.7163115E-1,4.1947192E-1,3.269528E-1,4.229452E-1,4.6741873E-1,4.4628733E-1,6.2354384E-3,6.0430717E-2,-1.4227447E-2,-3.2439135E-2,1.2522523E-2,3.5253767E-2,-2.5273278E-2,1.2817445E-2],"split_indices":[65,82,23,62,83,91,65,0,0,0,0,0,0,0,0],"split_type":[0,0,0,0,0,0,0,0,0,0,0,0,0,0,0],"sum_hessian":[1.3000739E3,3.9950247E2,9.005714E2,3.583783E1,3.6366464E2,4.3365372E2,4.669177E2,3.3844513E1,1.993317E0,2.9339517E2,7.0269455E1,2.5940836E2,1.7424536E2,2.6394693E2,2.0297078E2],"tree_param":{"num_deleted":"0","num_feature":"104","num_nodes":"15","size_leaf_vector":"0"}},{"base_weights":[1.1166487E-2,3.594211E-1,-1.04721315E-1,-6.405086E-1,3.984978E-1,-1.7656137E-1,3.6131898E-1,6.8378156E-1,1.9970939E-1,-8.118392E-2,-6.469586E-1,8.1377506E-1,7.693049E-2],"categories":[],"categories_nodes":[],"categories_segments":[],"categories_sizes":[],"default_left":[1,1,1,0,1,1,1,0,0,0,0,0,0],"id":69,"left_children":[1,3,5,-1,7,9,11,-1,-1,-1,-1,-1,-1],"loss_changes":[5.515909E1,1.3588833E1,3.4399803E1,0E0,1.852267E1,3.9844105E1,1.7604631E1,0E0,0E0,0E0,0E0,0E0,0E0],"parents":[2147483647,0,0,1,1,2,2,4,4,5,5,6,6],"right_children":[2,4,6,-1,8,10,12,-1,-1,-1,-1,-1,-1],"split_conditions":[3.6981773E-1,1.1298441E-1,5.09802E-1,-3.202543E-2,2.2531638E-1,4.872205E-1,4.9702984E-1,3.418908E-2,9.985469E-3,-4.059196E-3,-3.234793E-2,4.0688753E-2,3.8465247E-3],"split_indices":[41,15,81,0,41,93,89,0,0,0,0,0,0],"split_type":[0,0,0,0,0,0,0,0,0,0,0,0,0],"sum_hessian":[1.3647968E3,3.402399E2,1.0245569E3,1.221746E1,3.2802243E2,8.882538E2,1.3630307E2,1.3370332E2,1.9431909E2,7.394882E2,1.4876558E2,5.1888332E1,8.4414734E1],"tree_param":{"num_deleted":"0","num_feature":"104","num_nodes":"13","size_leaf_vector":"0"}},{"base_weights":[-4.027525E-3,1.6403663E-1,-2.4250661E-1,-5.4863326E-2,4.7441906E-1,-3.4093477E-2,-4.6236217E-1,1.5946607E-1,-5.2447826E-1,-3.8621446E-1,5.816213E-1,-2.2946328E-1,8.365669E-1,-5.1986957E-1,3.1592404E-3],"categories":[],"categories_nodes":[],"categories_segments":[],"categories_sizes":[],"default_left":[1,1,1,1,1,1,1,0,0,0,0,0,0,0,0],"id":70,"left_children":[1,3,5,7,9,11,13,-1,-1,-1,-1,-1,-1,-1,-1],"loss_changes":[5.122089E1,5.096104E1,2.4191574E1,4.4423206E1,2.8839973E1,4.6508617E1,6.8821793E0,0E0,0E0,0E0,0E0,0E0,0E0,0E0,0E0],"parents":[2147483647,0,0,1,1,2,2,3,3,4,4,5,5,6,6],"right_children":[2,4,6,8,10,12,14,-1,-1,-1,-1,-1,-1,-1,-1],"split_conditions":[6.0195196E-1,4.77491E-1,4.496798E-1,3.8751435E-1,5.725916E-1,4.264571E-1,5.134691E-1,7.973304E-3,-2.6223913E-2,-1.9310724E-2,2.9081065E-2,-1.1473164E-2,4.1828346E-2,-2.599348E-2,1.5796201E-4],"split_indices":[102,41,47,65,56,41,85,0,0,0,0,0,0,0,0],"split_type":[0,0,0,0,0,0,0,0,0,0,0,0,0,0,0],"sum_hessian":[1.2759806E3,7.4867596E2,5.273047E2,4.3952225E2,3.091537E2,2.7128955E2,2.5601517E2,3.022415E2,1.3728076E2,3.3955086E1,2.751986E2,2.2217218E2,4.911736E1,2.2776219E2,2.825297E1],"tree_param":{"num_deleted":"0","num_feature":"104","num_nodes":"15","size_leaf_vector":"0"}},{"base_weights":[9.660548E-3,-2.9776204E-1,1.2767313E-1,2.8389868E-1,-3.4837502E-1,3.8986957E-1,-1.5036806E-1,-4.4501272E-1,4.795236E-1,-2.7482536E-1,-5.8042884E-1,2.0507921E-1,6.707418E-1,-4.29474E-1,3.2035264E-1],"categories":[],"categories_nodes":[],"categories_segments":[],"categories_sizes":[],"default_left":[1,1,1,1,1,1,1,0,0,0,0,0,0,0,0],"id":71,"left_children":[1,3,5,7,9,11,13,-1,-1,-1,-1,-1,-1,-1,-1],"loss_changes":[4.7527107E1,1.0797211E1,6.906502E1,4.4399643E0,5.553959E0,2.5162064E1,6.058941E1,0E0,0E0,0E0,0E0,0E0,0E0,0E0,0E0],"parents":[2147483647,0,0,1,1,2,2,3,3,4,4,5,5,6,6],"right_children":[2,4,6,8,10,12,14,-1,-1,-1,-1,-1,-1,-1,-1],"split_conditions":[3.648177E-1,1.9590417E-1,4.171052E-1,3.1422246E-1,3.5981607E-1,4.6766973E-1,4.992203E-1,-2.2250636E-2,2.397618E-2,-1.3741269E-2,-2.9021442E-2,1.0253961E-2,3.353709E-2,-2.14737E-2,1.6017633E-2],"split_indices":[65,18,17,70,7,95,95,0,0,0,0,0,0,0,0],"split_type":[0,0,0,0,0,0,0,0,0,0,0,0,0,0,0],"sum_hessian":[1.3079702E3,3.623988E2,9.455714E2,2.8640745E1,3.3375806E2,4.8644516E2,4.5912628E2,5.7904224E0,2.2850323E1,2.5509106E2,7.8666985E1,2.9445117E2,1.91994E2,2.8828195E2,1.7084431E2],"tree_param":{"num_deleted":"0","num_feature":"104","num_nodes":"15","size_leaf_vector":"0"}},{"base_weights":[-1.5704095E-2,4.9666816E-1,-9.405848E-2,-6.100521E-1,5.9228545E-1,1.5159518E-1,-1.9799577E-1,1.6978776E-1,6.7459214E-1,1.2444504E-2,8.137899E-1,-2.8253356E-1,3.3257237E-1],"categories":[],"categories_nodes":[],"categories_segments":[],"categories_sizes":[],"default_left":[1,1,1,0,1,1,1,0,0,0,0,0,0],"id":72,"left_children":[1,3,5,-1,7,9,11,-1,-1,-1,-1,-1,-1],"loss_changes":[5.45169E1,1.9422295E1,3.0098656E1,0E0,5.6686707E0,3.2304813E1,3.7230537E1,0E0,0E0,0E0,0E0,0E0,0E0],"parents":[2147483647,0,0,1,1,2,2,4,4,5,5,6,6],"right_children":[2,4,6,-1,8,10,12,-1,-1,-1,-1,-1,-1],"split_conditions":[2.5964135E-1,1.0009567E-1,5.9907866E-1,-3.0502606E-2,5.4755366E-1,5.6730646E-1,5.1110154E-1,8.489388E-3,3.372961E-2,6.2222517E-4,4.0689494E-2,-1.4126678E-2,1.662862E-2],"split_indices":[3,23,70,0,66,78,81,0,0,0,0,0,0],"split_type":[0,0,0,0,0,0,0,0,0,0,0,0,0],"sum_hessian":[1.3557817E3,1.7912366E2,1.176658E3,1.3817154E1,1.653065E2,3.4969724E2,8.269608E2,2.7452076E1,1.3785443E2,2.8981546E2,5.9881752E1,7.137097E2,1.13251076E2],"tree_param":{"num_deleted":"0","num_feature":"104","num_nodes":"13","size_leaf_vector":"0"}},{"base_weights":[-8.096175E-3,1.456804E-1,-2.2059435E-1,-6.305477E-2,4.616345E-1,1.4525457E-2,-4.5226714E-1,1.451947E-1,-4.997315E-1,-3.5985306E-1,5.715743E-1,-2.1053582E-1,9.173768E-1,2.561372E-1,-4.7990528E-1],"categories":[],"categories_nodes":[],"categories_segments":[],"categories_sizes":[],"default_left":[1,1,1,1,1,1,1,0,0,0,0,0,0,0,0],"id":73,"left_children":[1,3,5,7,9,11,13,-1,-1,-1,-1,-1,-1,-1,-1],"loss_changes":[4.2358364E1,4.962892E1,2.9650051E1,4.1336346E1,2.7238056E1,5.5272415E1,5.490387E0,0E0,0E0,0E0,0E0,0E0,0E0,0E0,0E0],"parents":[2147483647,0,0,1,1,2,2,3,3,4,4,5,5,6,6],"right_children":[2,4,6,8,10,12,14,-1,-1,-1,-1,-1,-1,-1,-1],"split_conditions":[6.0454994E-1,4.8008594E-1,4.5187834E-1,3.878045E-1,5.701425E-1,4.2587858E-1,3.7696323E-1,7.259735E-3,-2.4986576E-2,-1.7992653E-2,2.8578714E-2,-1.0526791E-2,4.586884E-2,1.280686E-2,-2.3995264E-2],"split_indices":[54,43,29,65,56,43,65,0,0,0,0,0,0,0,0],"split_type":[0,0,0,0,0,0,0,0,0,0,0,0,0,0,0],"sum_hessian":[1.2942817E3,7.5107367E2,5.43208E2,4.5275885E2,2.9831482E2,2.7006357E2,2.7314447E2,3.07013E2,1.4574583E2,3.4942886E1,2.6337195E2,2.1678946E2,5.327411E1,9.9460335E0,2.6319843E2],"tree_param":{"num_deleted":"0","num_feature":"104","num_nodes":"15","size_leaf_vector":"0"}},{"base_weights":[-1.4103157E-2,-2.9402915E-1,1.2801567E-1,-2.1181624E-1,-6.556611E-1,5.065676E-1,-1.1981824E-1,-3.2637408E-1,9.6584296E-1,1.505712E-1,-6.681086E-1,5.6222653E-1,-5.6482005E-1,-3.7083125E-1,2.51181E-1],"categories":[],"categories_nodes":[],"categories_segments":[],"categories_sizes":[],"default_left":[1,1,1,1,1,1,1,0,0,0,0,0,0,0,0],"id":74,"left_children":[1,3,5,7,9,11,13,-1,-1,-1,-1,-1,-1,-1,-1],"loss_changes":[5.1554592E1,1.2834621E1,8.070586E1,4.848018E1,9.0695953E-1,2.0610107E1,4.854612E1,0E0,0E0,0E0,0E0,0E0,0E0,0E0,0E0],"parents":[2147483647,0,0,1,1,2,2,3,3,4,4,5,5,6,6],"right_children":[2,4,6,8,10,12,14,-1,-1,-1,-1,-1,-1,-1,-1],"split_conditions":[4.30217E-1,4.3040198E-1,4.086745E-1,3.513724E-1,4.2782524E-1,7.2507083E-1,4.916103E-1,-1.6318705E-2,4.829215E-2,7.52856E-3,-3.340543E-2,2.8111327E-2,-2.8241003E-2,-1.8541563E-2,1.2559051E-2],"split_indices":[93,83,21,65,79,74,93,0,0,0,0,0,0,0,0],"split_type":[0,0,0,0,0,0,0,0,0,0,0,0,0,0,0],"sum_hessian":[1.2939569E3,4.3536545E2,8.585915E2,3.5601517E2,7.935028E1,3.3929462E2,5.192969E2,3.2511243E2,3.090274E1,1.0377517E0,7.831253E1,3.229904E2,1.6304218E1,3.097349E2,2.0956195E2],"tree_param":{"num_deleted":"0","num_feature":"104","num_nodes":"15","size_leaf_vector":"0"}},{"base_weights":[1.043497E-2,4.958604E-1,-6.549143E-2,-6.0209036E-1,5.782372E-1,-1.2093919E-1,4.0102768E-1,-6.582278E-1,-3.935001E-2,8.777124E-2,6.5138006E-1,1.217958E-2,-4.3938437E-1,-1.5522361E-1,5.5442655E-1],"categories":[],"categories_nodes":[],"categories_segments":[],"categories_sizes":[],"default_left":[1,1,1,1,1,1,1,0,0,0,0,0,0,0,0],"id":75,"left_children":[1,3,5,7,9,11,13,-1,-1,-1,-1,-1,-1,-1,-1],"loss_changes":[4.9612553E1,1.6815197E1,3.0162071E1,3.9098787E-1,6.036728E0,4.4145107E1,1.065803E1,0E0,0E0,0E0,0E0,0E0,0E0,0E0,0E0],"parents":[2147483647,0,0,1,1,2,2,3,3,4,4,5,5,6,6],"right_children":[2,4,6,8,10,12,14,-1,-1,-1,-1,-1,-1,-1,-1],"split_conditions":[2.5481197E-1,8.671325E-2,5.1145303E-1,7.797396E-2,5.5599505E-1,4.7250772E-1,5.94627E-1,-3.291139E-2,-1.9675007E-3,4.388562E-3,3.2569002E-2,6.0897897E-4,-2.196922E-2,-7.7611804E-3,2.7721329E-2],"split_indices":[43,75,81,69,94,93,92,0,0,0,0,0,0,0,0],"split_type":[0,0,0,0,0,0,0,0,0,0,0,0,0,0,0],"sum_hessian":[1.3442155E3,1.8106561E2,1.1631499E3,1.2196522E1,1.6886908E2,1.0402523E3,1.22897575E2,1.0935904E1,1.2606184E0,2.2200659E1,1.4666843E2,7.342694E2,3.0598285E2,2.656312E1,9.633446E1],"tree_param":{"num_deleted":"0","num_feature":"104","num_nodes":"15","size_leaf_vector":"0"}},{"base_weights":[-5.557468E-3,-1.2033094E-1,2.974157E-1,-1.4723078E-2,-5.983624E-1,5.3285056E-1,-2.2356988E-1,-5.6111813E-2,1.0126553E0,-6.0812104E-1,-2.5999853E-1,